的	0.208634 0.349681 -0.977273 -0.1161 -0.51015 -0.103978 -1.89238 -1.09891 -0.544916 0.3279 -0.849825 0.411298 0.00370385 -0.99036 -0.689372 0.504943 -0.546106 0.291226 -1.70211 0.286622 
了	-0.122883 -0.712105 -0.244427 -0.595306 -0.324165 -2.04704 -0.840377 1.28988 0.0734862 0.0466166 0.019238 -1.32133 -0.246031 0.143393 -1.945 0.249606 1.06689 -0.505445 -1.84438 1.3059 
是	1.43268 -0.102091 -1.60302 -0.717383 -0.782624 -0.231435 -1.68605 -0.581698 -0.297465 0.0363578 0.368173 -0.250766 2.46009 -1.16622 1.03695 0.75927 -1.36908 -0.470244 -2.4311 0.611405 
你	-1.28679 -0.128933 -3.14724 -0.129625 -1.16873 -1.41043 -0.650689 -0.64103 -0.478637 -0.241343 -2.17155 -0.384447 -0.686856 2.46409 -1.80497 -0.00961368 -1.14695 -1.29787 -2.28165 1.64455 
我	-0.31245 -0.714059 -1.8003 -1.69957 -1.8438 0.174043 -1.07217 -0.700243 0.588747 -0.554488 -1.01143 -0.78763 -0.216874 3.38983 -2.46754 -0.211128 0.82446 -1.23152 -2.21043 1.0248 
不	0.179495 0.537402 -2.97638 -0.714672 -1.30696 -1.73601 -1.65322 0.0682621 -2.36371 1.80347 0.629541 0.241634 0.248289 0.606118 -2.95277 -1.11666 -0.553417 -0.822712 -1.54501 2.93732 
就	-0.743767 -2.79679 -0.191177 -0.715727 -0.738837 -2.04986 -1.59418 0.232103 -0.975447 0.695806 -1.99838 -0.995253 -0.0132011 0.182162 -2.08624 -0.186268 -0.455996 -1.07494 -1.91596 1.84917 
在	0.964751 -1.30156 -2.48699 -1.89732 -0.684621 0.613578 -1.64511 0.977284 -0.208126 -0.211396 1.91246 0.704215 0.320287 -0.799153 0.347426 -0.81759 -1.70108 0.253446 -1.73021 1.58039 
中国	0.97814 -0.912816 -1.21578 1.59274 -0.722514 0.896317 -0.819413 -3.22111 -1.03703 -0.959014 -1.59895 0.213171 0.733373 0.713718 -0.712341 0.588597 -0.551103 -1.27719 -1.22822 -4.48422 
今天	-0.209391 -0.744342 0.900676 -1.68556 -0.400637 -0.510453 -0.12523 0.477169 -1.95042 -1.44292 -0.128683 -1.29039 1.37431 0.760858 -1.06594 1.63702 -0.566943 -0.71459 -0.708959 1.22 
都	-0.585234 -1.16717 0.0504692 -0.220029 -0.355183 -0.831066 -2.34238 -0.401634 -0.579288 1.99538 -0.830598 -0.291151 0.621532 0.250461 -0.95114 -0.0138703 0.0459103 0.258438 -2.76857 1.34026 
建筑	0.763397 -0.0607737 -1.645 1.10789 2.57613 1.17937 -0.246885 -2.00123 -1.01193 1.50088 -0.05737 -0.203708 1.16246 2.20169 -2.45053 -0.0924411 -2.93354 0.516533 0.588339 -1.14398 
吧	-1.53898 -1.33022 -1.03135 -0.324907 -1.28583 -2.13468 -0.367833 0.251057 0.731071 0.662909 -0.459453 0.205978 -0.772727 -0.168724 -1.5567 -0.773156 1.70299 0.310106 -0.98285 1.68317 
有	1.74667 0.812924 -1.6905 0.279016 -1.70366 0.805003 -1.32957 0.991898 -1.51763 -0.58995 -0.0771702 -0.449229 3.09926 -2.81437 1.00294 0.484118 -0.778412 -1.87878 -2.20292 1.48433 
买	-0.901647 -2.18202 -1.17802 0.461216 -0.897838 1.82661 -0.559552 -1.28056 0.224949 0.966529 0.92597 -4.32764 0.884301 1.59341 0.0947561 -0.573548 0.887052 -0.332453 -4.6448 1.61088 
啊	-2.51852 -0.512585 0.153613 -0.426399 -0.0527363 -1.41203 0.272459 -0.121947 0.435175 0.485785 -1.42255 0.0325854 0.251547 -0.60509 -0.555354 0.0478561 0.147884 0.631835 -2.04375 1.9035 
要	0.430894 -0.698809 -2.40277 -0.757317 -1.84538 -2.04045 -0.252427 1.00835 -0.583747 -1.26275 0.856766 -0.65002 1.91567 -1.22535 -1.25527 -0.505585 0.0902454 -0.79292 -0.634211 1.29047 
科技	2.61384 0.862875 0.992636 0.622499 2.39344 1.76668 0.854153 -3.01975 -3.20015 -2.08242 0.00670452 0.442275 0.818393 0.47185 0.32105 -0.142713 0.0108718 2.09186 0.997832 -0.19544 
跌	-1.05805 -2.50343 -1.9601 0.369683 -1.83916 -0.998961 0.729663 2.15371 -2.97977 1.16132 -1.40522 -4.39334 0.66087 2.4776 0.856887 -1.65689 -1.55173 -0.137574 -4.27917 0.625273 
股	1.82809 0.28873 0.372961 0.0364219 1.66691 -1.08304 0.77196 -1.19795 0.927763 1.69511 0.92558 -0.475273 3.17604 0.563428 -1.2434 -1.25977 -0.0234011 -0.160031 -2.3553 -0.686965 
主力	-1.28464 1.01039 -0.584336 -3.47687 0.489175 1.1266 -1.21894 2.42793 -0.249213 0.792832 -1.23513 -0.197506 0.515568 1.57376 -1.72747 1.68122 -0.415438 -0.223188 -0.00309108 0.149846 
还	-1.88815 -1.91614 0.302764 -0.42417 0.971915 -0.235691 -1.21278 0.420019 -1.19508 1.59603 -2.78533 -0.747334 -0.169399 -0.427105 -1.96904 -1.14552 -1.16395 0.0427535 -2.50399 1.67188 
涨停	-0.704263 -0.63064 0.448066 1.34157 -1.55499 0.426798 1.45067 0.159699 -1.10436 -1.89021 -1.36226 -3.38689 2.46185 1.54842 1.32764 3.02014 -0.215768 -1.35443 -0.694699 1.20945 
明天	-1.01256 -1.46755 0.789618 -0.752235 -1.95903 -0.699963 0.248704 0.908804 -2.8306 -1.20546 -0.265295 -2.03637 1.19635 0.380583 -2.12939 1.78326 -0.641989 -0.369999 0.859583 1.36229 
元	1.53915 -1.4677 -1.03815 -1.15635 -0.675539 2.7076 0.858768 -0.433636 -1.37282 -1.837 0.585315 -2.65426 -1.2528 0.594382 -3.80019 -1.25968 -2.78443 -1.3878 -2.19558 0.452149 
日	2.91449 0.93768 0.996573 0.342733 4.82816 1.15506 1.86706 -0.509232 -1.99952 -0.361916 2.00688 0.461444 0.209008 2.519 0.070843 -0.372335 -1.60128 3.36829 2.681 3.69715 
这	1.39442 1.37518 -2.47408 -0.214546 -0.426605 -1.75465 -2.57405 -0.070976 -1.39992 0.396461 -0.514139 -1.80292 -0.188609 1.6727 0.0374238 1.43014 -2.6514 3.1827 -1.82886 2.44 
大	0.0762798 1.30313 0.825835 1.10874 -0.159178 0.922871 -2.09862 0.945849 -2.0647 -1.79938 -0.49251 -0.419251 0.0152156 -3.82097 -0.492825 2.57475 0.898672 -0.268641 -1.2386 -2.92306 
吗	-1.71711 -0.0897461 -0.27854 0.514087 0.162463 -0.171749 -1.15189 -0.535377 -1.26997 0.85744 -2.6975 0.0707496 0.402842 -1.15596 -2.01266 0.0937586 -1.10159 -0.0541414 -1.24851 3.17057 
北大	0.234018 0.673377 -1.2687 1.57916 -0.74043 0.566173 0.280842 -2.6919 -0.619131 -2.60483 -2.31793 0.183571 2.81599 0.128629 -2.70113 -0.962966 1.81061 -1.79016 -1.07938 -3.34 
垃圾	0.508967 1.70412 -1.20879 0.252451 1.40738 -2.50036 -0.269837 -1.29025 -0.46321 -0.305845 -1.19092 -0.681987 1.32356 1.23118 0.0138185 -0.624267 -0.182331 2.3131 -3.8064 -0.809759 
涨	-0.0841708 -2.31712 -1.58401 1.45782 -1.25814 -1.28077 0.499844 1.27498 -3.35576 1.91953 -0.93009 -4.3118 1.15078 2.44074 2.46567 -0.830525 -1.60919 -0.647669 -4.84144 0.654884 
大盘	0.0503231 -1.92435 -0.0231089 -2.31664 -1.7963 -3.15632 1.71427 1.36046 -3.1695 2.36286 -0.608424 -0.342417 1.40968 1.98527 -0.677331 -0.766593 -2.00892 -0.278947 -0.292177 -0.894237 
也	-0.340456 -1.40102 -0.39535 0.132218 0.28772 -0.947665 -2.0937 -0.203791 -1.46276 1.75338 -2.38653 -1.59726 0.59912 -0.371969 -1.69011 -0.09795 -0.570114 -0.839639 -2.41694 0.464008 
又	-1.66247 -2.44106 0.983833 -0.481508 0.328871 -1.80982 -1.1539 1.81807 0.158405 -0.924627 -1.10185 -1.52476 0.784222 -0.0318202 -1.55253 1.6857 -0.434558 0.133652 -0.63912 0.434795 
到	1.22626 -3.56805 -1.40538 -0.702756 -1.41794 -0.105996 -0.174353 0.606016 -0.293908 -1.55689 -0.815804 -1.80794 -0.572464 -0.786919 -1.95943 -1.60669 -2.1903 -1.53303 -2.20498 0.668634 
好	-0.258667 1.65309 -1.80663 0.634346 -2.83299 -0.660548 -0.602802 0.0402202 -2.85469 0.0616442 -1.35802 -0.965579 -1.18815 -1.80607 -0.0602307 -0.267591 0.78252 -0.12171 -2.8014 0.186473 
兆	1.71322 1.38926 0.491549 -1.00011 5.6086 0.705805 3.1976 -2.20664 -2.53113 -6.27593 -3.99408 0.354727 0.949968 0.175705 -1.28419 -0.574898 0.257493 -0.587287 1.64949 -1.86024 
就是	-0.0164172 -1.55455 -0.856472 -1.01041 -0.590762 -1.11199 -2.37074 -2.13477 0.218695 0.438987 -1.94111 -0.112548 0.648636 -1.96978 0.234488 1.25693 -1.5875 0.104731 -2.40792 -0.0580991 
走	0.478042 -0.710679 0.188478 -0.961246 0.0861853 -0.235696 -0.555132 1.39602 -1.85458 2.55574 -0.964364 -4.13631 -1.77285 1.0339 1.07707 0.840774 2.50761 0.644289 -1.2657 2.21875 
跑	-1.83434 -2.27458 0.0720303 -0.577746 -2.4872 0.816854 -0.552604 1.89177 -1.38357 1.13695 1.45158 -3.85486 0.0602452 1.72259 2.59992 -0.380939 2.81193 3.27611 -3.07982 2.99978 
什么	-0.435949 0.701098 -1.82398 1.67848 -2.65811 -0.650251 -2.86757 -0.476917 -1.44671 -0.133414 -3.70035 0.898153 0.110107 -1.61897 -1.56957 -0.77347 -3.41525 3.53515 -2.31883 3.5638 
看	1.17938 -2.08546 -1.07195 -0.381671 0.337763 0.971518 -0.919958 0.452835 -2.28321 2.10678 -1.22033 -0.872047 0.474487 0.184652 2.10987 -0.522603 0.29066 -1.82116 -0.799485 3.00393 
多	-1.14868 0.591589 -0.502837 0.0938933 -2.71756 0.425173 -2.38289 0.795902 -2.99395 -1.00955 -0.754176 0.757836 -0.616156 -1.23997 -0.784526 -1.35569 2.01785 -0.605445 -5.40268 -1.36248 
大家	-0.157858 -0.256995 -1.71707 -0.945063 -4.85684 -0.00867428 -0.979918 0.036738 0.165419 1.10027 -0.429944 -0.209599 0.594352 2.67582 -1.96295 0.252149 2.32593 -0.985739 -0.380058 1.05367 
再	-0.604492 -3.32011 -1.26195 -0.534901 -2.48276 -1.47548 -0.992716 0.724673 -0.440354 0.441634 -0.0995932 -1.35779 -0.898558 -0.413879 -3.16077 -0.193161 -0.357248 -1.78346 -0.774524 1.42357 
网宿	0.778951 1.40244 0.0600073 -0.370978 4.79593 0.892531 2.04911 -1.25956 -2.41843 -0.740873 -0.994814 0.0179128 1.31917 2.28358 -2.08249 -0.827766 -1.9798 0.341536 1.07251 -0.0393342 
会	1.31382 0.446139 -3.04507 -1.0121 -1.59781 -1.1098 0.0672607 1.52074 -2.2824 -0.929228 0.40506 -1.21572 3.7286 -0.93006 -1.59867 -0.53955 -0.930449 -2.50663 -0.689502 1.25838 
卖	-1.03007 -1.24793 -1.42588 -0.238294 -1.02105 1.18407 -1.07891 -0.232111 -0.502443 0.321523 1.51344 -4.32649 0.846685 2.91706 -0.155071 0.0197643 1.18177 0.550788 -4.19323 2.68312 
股票	1.91558 0.386818 0.0543882 0.089007 1.38108 -0.854107 -0.208147 -1.21793 1.20161 2.62284 -0.441251 0.0200562 2.92368 1.0465 -2.09815 -1.62178 -0.303058 -0.522408 -2.93575 -0.475729 
等	-0.0524476 -2.60779 -2.03206 0.352582 1.66514 0.122083 0.643159 1.51498 0.829036 2.13538 2.90562 -1.40873 -0.637698 -2.265 -0.47059 -1.01502 -1.05181 -0.197345 0.345237 3.99113 
和	1.82211 -0.806305 -1.38072 1.10219 2.00639 1.38303 -2.51074 -1.65937 -1.56631 0.82574 1.2325 0.933494 0.405911 -1.36143 1.24636 1.01383 0.584085 -1.66829 -0.613941 -0.909658 
没	3.0476 0.99828 -2.4134 -0.947609 -1.39186 -2.06113 -1.22567 1.89842 -1.10445 -0.700511 2.28751 -0.0928369 1.37118 -3.40801 0.27781 -0.788186 0.562949 -1.41849 -3.00041 4.0109 
没有	3.33672 1.73035 -1.56101 -0.756213 -0.621669 -0.831377 -1.26795 0.93726 -1.54097 0.0219102 2.17712 0.54496 2.30851 -2.99286 0.79763 -0.834632 -0.860922 -0.199375 -3.23712 3.02651 
医药	1.34954 0.613761 -0.722079 1.5241 3.57358 0.734892 0.71319 -2.38508 -0.500515 0.723245 -1.50428 -1.83182 2.20837 -0.172063 -1.63458 -0.31451 -0.522258 2.67701 2.71141 0.376146 
公司	2.4026 1.54718 -0.468965 3.09716 3.46121 1.0053 -1.4379 0.0706304 0.448183 1.45964 -2.34119 1.06586 2.58325 0.576883 -2.38895 -1.7444 0.213615 0.522996 -0.270274 -1.56862 
月	4.56294 -3.76968 1.67517 -0.115167 -0.747858 -0.101222 0.370982 0.0256551 0.538053 -6.55795 -4.21654 0.713304 -1.27209 -0.963501 0.179182 -0.532405 -0.353378 -0.88453 0.145765 -3.11102 
机构	-2.31975 -0.378051 -1.07959 -3.46768 0.517836 2.30768 -2.08388 0.288381 2.74822 1.89768 0.956054 1.09182 1.44114 3.05004 -2.89739 1.029 0.875181 0.61859 0.0536088 -2.2556 
出货	-2.63517 0.47457 -1.96666 -3.38908 -1.02294 2.88611 -1.91781 3.53258 -2.41522 1.1095 1.38987 -3.25001 0.202779 1.91783 1.00174 1.80573 -0.390206 4.58121 0.16277 2.11313 
中建	1.28956 0.350924 -1.50549 1.2883 1.28736 -0.490235 -0.192615 -0.577551 -0.825764 0.418009 -1.34127 -0.268455 -0.144835 1.76539 -1.66073 -0.00412282 -1.26713 -1.00627 -0.23022 -0.918618 
买入	0.0532793 -1.33435 0.697702 -1.30944 -0.703577 4.84069 1.11698 -2.26762 0.601272 0.130823 2.10144 -3.25129 1.17743 0.265902 -0.499495 0.978199 0.304389 0.0909172 -0.877251 -0.0975315 
现在	0.92899 -0.185253 -1.19632 -1.87582 -1.22756 0.797266 -1.04907 -0.275526 -0.494588 0.0644549 0.612416 -1.32364 0.705494 0.696175 -2.59528 -0.972393 -1.01992 0.0264694 -2.57119 0.267565 
人	0.868506 2.71871 -1.73073 -2.47521 -1.22349 -1.1061 -0.916142 1.00748 1.62041 0.42191 -2.48932 0.0641637 0.884642 1.75916 -4.06533 -1.30258 2.22758 -0.916366 -2.82783 -0.262831 
个	0.554538 -0.215925 0.102282 1.80428 -0.493511 -0.586285 -1.87546 0.222212 1.04085 0.447681 -0.0686017 -0.0486659 -0.22029 2.28297 -1.37852 2.81234 -4.56483 1.43428 -1.46059 3.70919 
这个	0.759657 1.79658 -2.79592 -0.0895228 -0.666142 -0.861274 -3.01231 -1.31532 -2.01603 -0.456576 -1.3271 -1.73575 -1.11546 1.08138 -1.0246 1.39561 -2.71625 3.30414 -1.95299 1.99906 
能	2.22785 1.02292 -2.78522 -0.67096 -2.27575 -0.456622 1.63085 0.185985 -2.47733 -1.67363 0.517929 0.375928 0.823048 -0.964261 -1.10918 -1.83159 -1.09697 -4.19365 -3.24399 3.41378 
砸	-6.43499 -4.37248 -2.18506 0.181393 -0.372243 3.68428 -0.799173 3.43217 0.345507 0.317382 -1.75769 -2.6596 -0.855317 1.31777 2.66103 1.50355 -2.27702 0.374334 -3.01544 -0.517739 
跌停	-2.07625 -1.76334 -0.588786 0.446862 -2.52046 0.590857 1.0384 1.12439 -0.0193356 -3.80854 -1.91181 -3.35628 2.33414 1.4805 0.609635 1.23917 -0.923031 0.588354 -1.59136 1.16755 
说	1.42123 -2.28787 -1.03166 0.322902 -0.739553 0.856498 -2.11838 -1.13261 -1.08615 1.77483 -1.28561 -1.08541 2.81092 1.51436 1.76526 -1.42798 1.43011 -0.441244 -2.61538 3.0639 
散户	-1.47358 2.79802 -2.64282 -3.5995 -2.1215 1.48966 -2.4166 2.06138 1.18932 1.37588 0.0414843 -0.0573248 0.642603 1.66295 -3.50872 0.348696 1.62874 0.413585 -2.09689 0.0161215 
大笑	-3.20225 1.16819 -0.993655 0.712869 1.17923 0.433904 1.85511 1.23365 -1.16692 -1.65448 0.171646 -1.70742 -2.7847 -0.6948 -2.89615 1.33249 0.652396 0.843899 0.251974 1.7334 
开始	0.625016 -1.79413 -0.613385 -2.13966 0.104465 -1.24002 1.40673 2.40737 0.524978 -1.3693 2.4672 -0.543186 1.51928 -1.52141 -0.450037 0.720571 -0.28142 -0.956738 1.34264 -0.518423 
股价	1.19459 -0.585225 -1.46419 -0.0662623 1.27503 0.677508 -1.18953 1.66227 -2.84056 1.47028 -1.02725 -0.205468 1.50696 0.962174 -3.26126 -1.96216 -3.37593 -1.18533 -1.44232 -1.32844 
庄家	-1.48424 1.48438 -1.65819 -2.77804 0.746244 0.677319 -2.14781 1.87971 -0.192436 0.631528 -1.90614 -0.169164 0.342232 1.93659 -2.08145 1.38232 0.162687 -0.0480698 -0.530679 0.514993 
不要	-0.794008 -0.214322 -2.83112 -1.43205 -3.83158 -1.47051 -2.04715 -0.690634 0.0873782 2.8521 1.09173 -0.346132 -0.0244353 -0.0523551 -2.89455 0.0607568 1.28343 -0.155623 -1.29641 2.3331 
点	0.573486 -2.85382 1.06158 -1.24866 -4.44866 -0.317952 1.38636 0.39998 -0.44869 -2.32332 -1.65879 -0.702359 0.250313 -0.502668 -0.303352 0.260168 -0.816973 -4.19017 -4.15013 -1.12473 
快	-1.9362 -0.84714 -0.366979 -0.345381 -1.44084 -2.6278 0.00174817 0.988796 -1.20389 -1.03726 2.89646 0.82191 -0.291128 -0.870658 -1.91095 -0.990112 1.50861 1.25481 -1.98039 1.70646 
被	0.833518 -0.251402 -4.05425 -1.52253 0.645904 -0.885028 -2.79833 0.770583 1.49037 -2.50352 -0.190938 -1.43731 1.38854 -2.50422 0.0325363 1.10421 1.95663 -0.870002 -1.07031 -2.09208 
来	0.389144 -1.344 -2.2193 0.908772 -2.76194 -0.311398 -0.944896 0.608054 1.09996 -1.63759 0.595677 -0.655072 0.163263 -1.11308 1.51459 0.914914 1.02319 -1.2912 -1.57891 1.2882 
一个	0.953356 0.141586 -0.265965 1.03279 -1.54544 -0.872395 -2.40751 -0.233352 0.709064 0.176945 -1.41757 0.0703157 0.356081 0.442615 -0.241379 3.00661 -2.40721 1.13927 -0.443214 1.92406 
谁	-2.30095 0.557318 -2.75811 -0.645675 -1.66942 0.687015 -2.93528 -1.01517 -1.25715 -0.369951 -0.931301 1.18427 0.0848941 2.15335 -3.48989 -0.424288 -1.16256 0.116519 -3.07251 2.88393 
做	0.0249889 -0.833105 -2.02017 -0.620779 -1.34366 2.55558 -2.13916 0.49834 0.515084 4.26679 -1.27324 -2.44056 -0.0934282 1.28268 1.40169 2.51342 -0.972456 -1.99149 -2.00064 -0.236339 
给	-0.623178 -2.92065 -2.57848 0.296605 -1.41447 1.42459 -2.41271 -1.71422 0.990827 -0.649344 -0.588354 -1.28499 0.0639152 -2.52445 1.90399 1.44913 0.989982 -2.81069 -2.89129 2.91481 
公告	1.34774 -0.319859 2.18363 2.88691 0.824457 2.18889 -0.881254 2.77165 -0.722389 -2.67419 -1.82833 1.39727 3.91497 0.927799 -1.28023 -2.4752 2.3528 1.78685 -0.0745474 0.414274 
怎么	-0.270037 0.0543308 -0.791054 0.433971 -0.404278 -1.20339 -1.87553 0.611062 -2.84051 -0.46802 -3.18038 0.621793 0.610187 -0.196632 -1.01056 -1.21663 0.13148 -0.388932 -2.47214 2.33908 
上	1.24825 -1.44234 -1.66284 0.00128551 -1.87062 1.08485 -0.454281 -0.210155 -0.80562 -0.667624 -1.34771 -1.11394 -2.40718 0.60024 0.72216 0.305717 -1.35318 -0.328074 -0.867957 0.444443 
这么	-1.55075 0.532128 0.452508 1.98608 1.2056 -0.885924 -2.51784 2.85057 -3.42689 4.52303 -0.495428 0.672651 1.10111 -0.778401 0.0724487 0.671882 -1.8962 -1.37066 -4.80986 2.73562 
年	4.97244 -0.654509 0.69911 3.16415 0.398954 0.880411 -0.193578 -0.833804 -1.16694 -0.0111829 -0.656629 0.263901 -1.52171 0.936225 -2.07724 -1.68714 -1.38468 1.3537 0.214743 -0.818323 
业绩	3.82106 1.22226 1.10997 3.58025 1.27904 -0.476863 -0.897639 1.72137 -3.53692 2.93531 -2.02502 -0.351098 1.18579 1.23751 -4.42935 -1.96689 -2.15327 -0.389869 -1.72797 -2.65129 
去	0.135864 -2.08063 -3.8333 0.705734 -0.429186 -0.603216 -0.625953 -0.143009 1.52635 -0.135344 1.22742 -0.0104951 -1.58514 0.396209 -0.236851 -1.7131 0.573841 -1.1799 -2.18705 2.2931 
可以	1.68328 -0.01416 -1.47709 -1.68728 -1.5951 0.632897 -0.332726 -0.278711 -0.734605 -0.273598 1.51255 0.0903228 0.422502 -0.737479 -2.21377 -0.219758 0.098988 -2.85307 -1.29686 1.69034 
还是	-0.8855 -0.46228 0.791804 -0.639712 -0.311054 -0.777716 -1.21 -0.945154 -1.9404 1.33529 -1.18002 -0.10503 0.386936 -1.09474 -1.25702 0.796955 -0.282391 0.0233833 -1.12116 0.68809 
死	-0.967172 -0.728861 -3.97822 -2.34115 0.497401 -1.34047 -1.22365 0.318095 1.02663 -1.14794 -2.39662 -2.2283 -1.7294 1.49355 0.182043 -0.618245 1.00646 1.32515 -2.60917 1.07654 
中	0.819035 -0.932688 1.54151 0.473724 0.453731 -1.47833 -1.6462 -1.67335 -0.387972 1.14964 -2.27667 0.0430716 -1.7908 0.190672 -1.67644 2.46944 -0.0949695 1.02375 0.726467 -4.62255 
资金	0.375572 1.26395 1.52025 -2.22691 2.39948 3.33977 -0.408947 3.51855 1.67221 3.09257 2.46154 1.48326 2.33835 1.87037 -2.89327 1.15819 -1.75807 0.307805 0.818689 -0.727728 
查看	8.35507 2.10797 1.2831 5.34382 1.77981 4.12788 1.9452 6.64715 -2.50869 1.28353 -3.15704 4.36571 -3.51691 -5.17017 0.810562 -4.11547 5.24631 -0.167569 3.13409 -2.09857 
你们	-0.860757 0.804613 -3.0584 -1.41507 -3.03292 -0.144773 -1.79113 0.338908 0.403048 -0.283871 -1.33076 -0.640568 -0.166708 2.91183 -3.27619 -0.635234 1.32348 -0.206341 -2.13127 2.32972 
原文	4.1456 -2.14408 4.69554 4.49039 3.851 3.77374 7.89594 7.88691 -1.2686 3.82721 -2.15516 4.20956 -2.52 -5.40445 -2.66918 -9.62445 1.07876 2.5651 0.741388 -3.55963 
机会	-0.228108 0.62612 1.99879 -3.04495 -3.59459 0.296109 2.73169 -0.363647 3.86192 3.23618 -0.314595 -2.09122 2.55319 0.947949 -4.25222 1.2021 -0.371742 0.0572096 -0.743923 1.60415 
下午	-1.90683 -2.10537 0.831513 -1.29456 -1.59714 -1.15566 1.11025 0.86237 -2.12009 -0.853413 0.754931 -0.803655 0.658387 0.792636 -1.19573 2.10166 -0.57095 -1.03932 0.909553 0.91178 
利好	0.136967 2.01915 0.517013 2.08673 -1.85633 0.0780507 -0.800097 3.40357 -2.05702 0.61313 0.914046 1.15382 4.99529 1.81843 -1.06108 -0.40461 -0.792387 3.20398 0.12738 -0.430963 
已经	2.50559 -0.315617 0.0376448 -2.12055 1.58192 -0.418904 -0.492 0.327666 -0.644895 -0.366341 0.988142 -1.00099 0.112958 -1.7051 -1.48058 0.0322595 0.290434 0.235256 0.256393 -1.02317 
融资	-3.16106 -2.68281 1.77394 0.0532602 0.504657 4.86774 -1.46289 -1.99603 0.581201 -1.2508 -1.31528 -1.41669 1.12912 0.198075 -1.19707 2.10141 -0.913802 1.89559 -1.69345 -3.00789 
想	-0.313648 -0.208267 -2.6087 -1.32804 -1.20815 -0.0631204 -1.52536 0.699413 0.281304 0.777734 0.0741294 0.443235 0.765436 0.161438 -1.03216 -0.336939 0.818172 -2.31217 -2.37932 3.69933 
出	0.156491 -1.1034 -0.665553 0.757345 0.46604 0.845355 -2.24506 3.35009 -1.4532 -1.68592 -0.0551077 -2.81813 1.23677 -0.979567 0.967566 -0.0740406 1.33315 1.71099 -1.13013 1.8154 
呢	-1.1714 0.416923 -1.47013 0.720706 -0.109259 0.109359 -1.02543 1.24035 -0.920085 0.805565 -0.862741 0.306992 1.18689 -0.392166 -1.5245 -0.994014 -0.777667 -0.380792 -2.0584 4.20373 
将	2.4683 -0.602298 -1.33568 0.375163 -0.400624 0.553609 1.30371 -0.111547 -1.30891 -1.16001 2.06317 0.17008 0.735815 -1.14563 -1.23012 0.0955205 -1.51014 0.0761252 2.91066 -2.553 
让	-1.15557 -1.82974 -2.68446 -0.883478 0.207182 0.404825 -2.51399 -1.02646 -0.0861101 0.839286 -0.686601 -1.22992 0.358882 -2.344 0.675458 0.488162 1.54922 -1.3688 -1.79082 2.68099 
继续	-2.17175 -1.87584 -0.117294 -1.95007 -0.694642 -0.333793 0.886547 0.68989 -2.14917 -0.471277 -0.931635 -0.140763 -0.0478719 -1.56507 -2.99867 0.294868 -0.740481 -1.48413 1.27912 0.104024 
下	0.520372 -2.70583 -0.727354 -0.477118 -3.63055 -0.116371 -0.0941463 2.09263 0.334138 -0.689527 -2.13204 0.585203 -0.636037 1.78077 0.0645096 0.657927 -2.10093 0.528015 1.79048 -0.214242 
振华	0.937447 2.17826 0.346668 1.2157 5.47198 0.793808 2.8716 -1.18971 -1.65818 -0.490768 -1.06814 -0.501718 0.817098 1.55252 -1.19448 -0.0470863 -0.537274 0.100249 2.05057 1.15836 
下跌	0.0528374 -0.928298 -0.827045 -1.96209 -2.5636 1.45171 1.20858 1.90025 -2.72309 0.419995 -1.06796 -3.09021 0.952512 0.819533 1.62952 0.387488 -3.20061 2.04138 -0.606126 -2.08296 
高	0.116528 2.97904 -0.153489 -0.397469 -2.13449 0.963619 0.312733 0.310278 -5.53535 -0.35167 1.70615 -0.219048 -1.7343 -1.62729 -3.16254 -1.04596 0.767969 -0.0552755 -2.59109 -1.34042 
很	-0.0600826 1.36512 0.46393 -1.37911 1.24612 0.148927 -1.24966 0.132509 -3.03347 5.00995 -2.02892 -0.567541 1.26993 -1.35477 0.213666 2.3799 -0.43938 -2.31977 -1.12123 0.973096 
信息	0.858372 2.76583 2.12218 2.21045 -0.115618 2.94252 -0.4101 -2.38891 -0.082528 -3.88782 0.513583 5.42034 2.54862 0.887559 -1.75626 0.437296 1.45329 3.08597 -0.111279 -0.15142 
看看	1.14257 -1.75681 -0.503592 1.88059 1.69176 0.59867 -0.964523 -1.74039 -0.707182 1.07071 0.0107941 -0.74149 0.443148 0.759722 2.23589 0.640228 0.578463 -2.02834 -2.11871 2.67423 
割肉	-1.84203 -3.35892 0.179843 -3.66484 -1.73874 -0.0852638 1.12472 -0.168539 2.85612 0.993148 0.145102 -2.91102 -0.118419 0.149566 1.31523 -0.727814 2.21433 2.81971 -2.69205 0.324203 
股市	0.215684 -0.578574 -0.901314 -0.446513 -0.172624 -1.45018 0.322498 -0.700674 0.530529 3.19509 -0.51457 1.22629 2.2939 1.97858 -1.31483 -1.21313 -1.42768 1.72959 0.425466 -1.84507 
拉	-2.63933 -1.70009 -1.34337 0.363431 -0.255313 0.745742 -0.0650432 2.4927 -2.1373 0.776231 0.0969404 -3.56844 0.678988 1.76552 2.67777 2.88073 0.407333 -1.40209 -0.600508 2.15967 
股东	2.06041 4.72801 -0.721091 2.46642 1.59928 4.06595 -3.72176 3.33814 0.790682 1.33065 1.16602 -0.0616088 2.08827 2.66731 -5.09437 0.7593 1.44971 0.738024 -0.619654 0.0397132 
对	0.958518 -0.253837 -2.61398 0.0343137 -0.452474 0.864404 -2.94545 -0.937497 -1.89543 0.760963 -0.784717 0.476722 1.42812 -0.340596 1.00104 -0.412291 1.06382 0.230809 -0.570203 0.0446153 
可能	0.545601 0.208808 0.328851 0.00402842 -1.51994 -0.457794 -0.055227 0.349198 -2.4717 -0.665809 -1.67956 -1.47036 3.09996 -0.914206 -2.2761 0.190712 -1.15626 0.363093 0.2645 0.142708 
昨天	-0.204322 -0.391652 1.22197 -2.6369 0.38988 -0.785817 -0.902748 0.243854 -1.35526 -2.24142 1.53906 0.246655 0.955788 2.26291 -1.85808 1.63566 0.710705 -1.2751 -2.0074 1.00685 
不会	0.525085 -0.509119 -1.84961 -0.307827 -0.984627 -2.33064 -2.10076 0.787537 -1.9262 0.484194 -0.480597 -1.51851 2.23067 -0.658692 -2.68713 0.369367 -1.2963 -0.577579 -0.949198 1.33691 
啦	-1.30812 -2.05546 0.476881 0.287629 0.184165 -2.27038 0.529544 2.31196 1.52927 0.568586 0.392419 -0.718034 0.228763 -0.765074 -0.830968 -0.0838763 1.24601 0.522666 -0.271006 0.948083 
把	-0.324912 -2.0572 -3.24001 -0.233461 -0.0403943 0.933056 -2.84078 0.206504 0.616211 -1.13865 -0.676387 -1.18505 -0.943283 -1.58121 0.688095 0.566292 0.815129 -1.98719 -2.45016 0.311083 
天天	-2.21653 -1.17908 -0.820761 -0.382683 0.278464 -2.30599 -3.01483 0.653229 -2.01247 -0.375539 -1.90198 2.4903 0.401517 -0.0996982 -0.139413 0.444563 -1.71729 0.882784 -2.63019 1.4596 
才	-0.835788 -1.97007 0.143567 -0.241708 -0.517372 -0.399404 -1.25347 -0.960643 -0.940345 0.3359 -1.48636 -1.06343 1.49587 -1.93215 -2.55699 0.271157 -3.16397 -0.527536 -2.40693 0.603142 
为什么	-1.37732 -0.900856 -0.355092 1.11758 0.226669 0.239597 -1.95677 -0.177449 -3.08895 0.114733 -1.80612 0.783075 2.28942 0.385868 -1.00646 -1.33241 -0.682973 0.318939 -2.21943 1.61454 
哈哈	-1.67006 -1.20532 -0.345496 -1.00175 -0.0695338 -0.466471 0.688534 -0.0183573 1.22029 -0.582011 0.289459 -1.17369 -0.627591 0.538244 -0.977114 1.01059 1.00209 -1.21549 -1.31134 1.11501 
着	-1.4981 -1.03117 -4.12209 0.00731942 -4.29345 -0.889759 -2.01748 1.50927 0.550424 0.183885 -0.859182 0.718014 -4.47148 0.556846 -2.63427 -0.535671 -1.06492 0.29663 -1.91292 1.81292 
暴跌	-2.16656 -4.1995 -0.354186 -1.11757 -4.32441 -0.387795 1.35079 2.97102 -1.02807 -0.370968 -0.628577 -3.44621 2.58156 2.68933 1.31865 -0.360178 -1.42658 3.96358 0.0511366 -2.87639 
融券	-4.21257 -0.412598 -0.0348419 -1.76415 3.2423 5.47583 4.00439 -4.72359 0.632274 -3.81006 1.3017 2.04161 2.95325 -2.42978 -0.681572 -1.71699 0.77426 2.18407 -2.47047 -2.54 
盘	-4.13731 0.32855 -3.13843 -2.50921 -0.455992 1.85863 0.223562 3.34874 0.00870016 -3.66942 -0.608026 1.58501 0.427389 -0.671842 -1.93248 -0.574548 -2.45148 -0.197335 -2.14621 -2.07277 
不是	1.4497 0.436305 -2.98396 -0.798725 -1.90917 -1.35676 -2.32689 -0.182772 -0.0949897 -0.272499 0.34057 0.4986 2.34985 -2.24757 0.434705 0.253499 -1.52293 -0.945664 -3.354 1.51407 
还有	1.73093 -0.408817 0.0717042 -0.725699 -1.22307 0.49421 -0.884415 0.7447 -0.541178 -1.14598 -0.316239 -0.914355 1.78582 -3.33604 0.408664 -0.0943308 -1.47248 -0.447724 -3.25867 2.12207 
太	-1.33618 0.644666 0.602603 -0.522693 1.80943 -1.58373 -3.1344 1.02328 -2.06919 4.48452 -0.972628 -0.417278 1.06827 -1.33099 0.506909 1.80199 1.57709 -0.616982 -3.48697 -0.293183 
已	1.71987 -1.17228 0.0937954 -2.45893 2.88492 0.192627 -0.137483 -0.164979 0.0104465 -0.367212 1.21451 -0.377239 -0.897065 -2.0304 -1.61204 0.208458 0.435948 0.702067 1.90819 -1.53341 
走势	3.22439 0.352131 0.567032 -2.44724 -0.123684 -0.0759152 0.609678 0.181452 -3.10309 0.440436 -2.38798 -0.206639 2.85028 3.01948 0.85428 -0.0190165 -0.352716 -0.132125 0.63098 -1.22843 
它	-0.192191 -0.331569 -2.73467 -0.179499 -1.05702 -3.11389 -0.547118 -0.0643525 -1.8641 1.12071 -1.37206 -0.353687 -0.105606 1.63091 -2.06041 -1.12393 -1.29738 -0.88067 -2.48559 0.0833445 
这样	0.523696 1.25901 -3.10757 -0.266205 -0.793689 -1.33233 -1.58897 1.05864 -2.22225 1.015 -2.10388 -1.17497 0.509396 0.198524 0.433773 0.281908 -1.34748 0.398585 -1.49992 1.35377 
猛烈	-6.98823 -1.6211 1.47871 -3.11324 -6.76767 -1.26752 7.08504 2.20415 6.92437 0.0133228 4.02814 5.02368 -2.61554 -0.570892 -2.78771 -0.526081 0.402708 6.6579 -1.31734 0.993506 
得	-0.229857 0.35902 -2.35135 -0.689719 -1.38397 -2.1443 -0.260142 1.88823 -1.5622 -0.151554 -0.213561 0.540186 -0.829779 -0.528156 -1.3162 -1.30963 0.241927 -2.08329 -3.16984 0.625814 
呀	-2.92406 -0.162118 -0.863083 0.496809 -0.604484 -1.44244 -0.148891 0.357892 -0.0919117 1.15762 -1.22041 0.314547 0.206624 -0.442699 -0.973847 -0.166177 -0.305387 0.0156755 -2.56788 2.62492 
时候	0.207886 -1.30253 -0.837326 -0.965868 -0.439291 -1.5829 1.65535 0.464543 0.597178 2.09796 -0.332276 0.017543 3.38116 0.0969133 -2.02846 -3.46311 -1.9136 -0.379947 -2.87646 2.28748 
投资	2.60156 1.0731 -2.42297 0.841242 -0.353985 4.04897 0.0552488 -3.26002 1.99093 3.81563 -1.03259 0.404217 -0.0117141 -0.926109 0.0663876 -0.957261 -0.643662 -0.260454 -1.34093 -2.07318 
知道	0.794752 -1.18035 -2.18579 0.77276 -0.376708 1.7525 -1.98862 -0.402914 -2.11066 0.0303061 -1.04187 -2.32789 3.19877 0.765658 2.16022 -1.62472 1.15518 0.392333 -2.86233 3.95613 
江西	1.02448 -3.08192 -4.31318 -0.789511 2.21162 1.18992 1.97592 -4.96959 1.51762 -2.20472 1.7945 1.5171 4.10721 1.75833 -0.979505 -3.05481 -4.12709 3.78739 2.70111 1.2249 
一	1.02154 -1.05396 -0.520462 0.64423 -0.547412 -1.09246 -2.45528 -0.24719 -1.70801 -1.23002 0.669772 -0.397863 -0.522319 0.709592 -0.818858 2.29647 -1.00336 0.189837 0.272555 1.5345 
胜利	-1.26605 0.615043 -1.09878 -1.05305 -0.647796 -0.987267 2.61886 -1.34708 0.207616 -0.661708 -0.0179688 -2.83187 -3.10551 -1.7508 -1.3518 3.7452 -0.596828 -0.738045 -0.74213 -0.330849 
拉升	-1.77739 -0.538796 -0.826442 -1.0914 -1.06607 2.78362 1.0989 2.52071 -1.5546 0.925806 0.102786 -4.06059 1.62819 1.2355 1.44588 2.58179 -1.17599 0.780269 1.40443 -0.295109 
彻底	-2.13762 -6.69005 0.176615 -1.58989 0.58459 -2.82478 -1.02278 2.21126 2.9775 0.433373 0.616036 -1.55 -1.87158 -0.821561 -2.09672 -0.824416 1.90309 5.84985 1.27034 -3.99296 
铜业	1.02329 2.86949 0.794019 1.78332 -0.383165 2.31784 0.639353 -2.71355 -3.95211 -3.92979 0.90881 -0.697898 1.07715 2.76486 -1.62841 0.440061 1.74574 2.03628 -1.06372 -4.1415 
比	-0.325058 -0.383507 -1.37764 1.7094 2.53917 0.279168 -0.441443 -0.864437 -2.62811 3.26758 2.90096 -0.637779 1.95418 -0.669619 2.33592 -0.610217 -0.826008 -2.74584 -6.14159 1.20481 
行情	3.41762 0.674725 1.23197 -1.57186 -1.64542 -2.18362 1.47682 2.13536 0.739428 3.50987 -1.3583 -2.17668 1.79415 0.776027 -1.81161 0.67623 -0.528912 0.796673 1.31744 -1.22283 
应该	0.712558 -0.50943 0.0879019 -0.261349 -0.495811 0.351127 -1.44486 -0.0309849 -1.74282 -0.0543235 -1.32355 -1.14337 1.35882 -0.698867 -2.05949 0.608837 -0.791828 -0.273294 -0.130606 0.101114 
此股	1.50469 0.935882 -0.104647 -2.99812 0.668631 0.0354865 -0.00351438 0.449191 -1.4865 1.13585 -0.769367 -1.78047 0.832893 1.20253 -2.07226 0.201748 0.434066 0.94438 1.1073 -0.214875 
妈	-2.20725 -1.49215 -2.67308 -0.427165 2.67584 -1.44009 0.566891 -0.92986 -0.265131 -1.77337 -1.03843 0.0262607 -0.0931013 1.11956 2.45422 -0.994854 0.0236212 -1.25135 -5.43318 1.16058 
大涨	0.701786 -1.6867 -1.13589 0.938315 -0.966491 -0.148016 1.12422 0.186186 -2.84379 -0.28964 0.887147 -3.76368 2.91591 1.45453 2.41345 1.62703 -1.46198 0.145698 0.160631 -1.05339 
数源科技	1.91739 1.54025 -0.329657 1.09675 1.1 1.50582 1.08424 -1.14225 -0.827492 -0.233349 0.165346 0.372119 1.07589 0.704149 -1.21751 0.545339 -0.394486 0.352086 2.32019 -0.115883 
钱	0.685729 0.915891 -1.67464 1.49615 -1.19693 0.19959 -2.4932 1.82118 2.64993 1.28469 -2.3683 -2.24585 -1.93261 0.025634 -3.66664 0.161174 0.118585 -1.9203 -5.43359 1.12564 
亏	0.858704 3.03124 1.30414 1.12752 0.523645 -0.613167 -0.5504 4.50543 1.33686 1.0234 2.46401 -3.50383 -1.29595 0.0198932 -2.14516 2.04037 1.97252 2.08048 -5.15323 2.06694 
一下	0.119689 -1.40333 0.158974 -0.146329 -1.76182 0.419598 -0.978799 1.90667 -1.53103 0.359181 -3.35284 0.318583 -0.43479 1.50513 -0.966247 0.78952 1.79242 -2.65415 0.793523 2.58533 
上涨	0.85769 -0.443508 -0.793094 -0.670703 -1.41553 1.40896 1.74787 1.37952 -2.86962 1.69935 -1.19879 -3.45395 1.71664 0.435292 1.99974 0.992419 -3.56294 0.643313 -0.44123 -2.75498 
后	3.06934 -2.09489 -0.668843 0.384136 -0.982881 -0.596187 -0.364202 0.928686 -1.2455 -1.50815 1.42397 -0.570464 -0.0727422 -1.17849 -2.00584 -0.488979 -1.81123 0.409562 1.52691 1.34235 
出来	0.498549 -1.57762 -1.41276 0.753683 -2.05978 -0.0884405 -2.56058 2.30543 -0.494575 -1.18679 -1.12589 -0.799328 -0.304229 0.128775 -0.00576936 -0.533643 1.57811 0.0850546 -1.45613 1.50218 
只	1.6761 -1.80441 -0.221958 -0.727147 -0.0857586 -1.25963 -3.30111 -2.43378 0.84116 2.49497 -1.02764 0.0477482 -0.406463 0.638894 -1.90962 0.560988 -2.02622 1.13991 -2.43463 0.413079 
为	0.638716 -0.21399 -2.01727 0.238197 -0.402196 1.58303 -1.18438 -0.75023 -1.5502 1.30441 1.87951 1.19072 -1.37885 -1.1089 0.315589 -0.420063 -0.0743618 0.690131 0.315737 0.128625 
坚决	-3.14436 -3.959 0.2383 -3.81882 -0.373693 0.242795 0.297624 -2.02108 -0.741211 0.343677 -0.0798659 -0.476633 -3.55137 -0.796276 -4.56364 -1.48348 1.15277 1.80784 -0.105297 -2.53313 
他	-1.05994 -0.426047 -3.38416 0.110389 -0.957788 -2.18378 -1.56161 0.26352 -1.30643 -0.261252 -1.20454 0.416488 -0.110836 2.69026 -1.6455 -0.597648 -0.77456 -0.980844 -2.38401 0.404353 
逼	-3.37059 0.726175 -2.02506 0.738292 1.08255 -1.80903 -1.20871 -0.357212 2.28099 1.32497 0.671111 -0.653093 1.41737 1.22623 0.664308 3.55868 -0.742155 -0.799319 -4.48006 1.15598 
创业板	1.21298 -0.591586 0.60909 0.10404 -0.534031 -2.18111 1.11224 -1.1921 -1.94571 1.21234 1.10306 -0.0314025 1.46144 1.82304 -0.147103 -0.710498 -1.48966 1.99571 -1.14587 -2.20463 
亿	1.03991 -1.33359 1.01586 2.28288 2.26145 2.99448 -1.17025 1.02559 1.79844 -1.68368 0.3731 1.15093 1.03314 -2.28916 -1.11998 0.904374 -2.53053 -3.25344 -4.12517 -1.94786 
们	-1.07656 1.17723 -4.04794 -1.95489 -2.68015 1.8388 -1.2925 -2.39199 0.0172323 -2.62024 0.647179 0.0570345 -0.885771 -1.89462 0.866274 0.311932 4.78954 0.105934 -1.29824 1.74023 
玩	0.584243 0.161401 -2.5711 -1.09981 0.977978 0.103482 -0.849135 2.33779 -0.0893008 2.80909 -1.93407 -3.46314 -1.58112 1.28222 2.8625 1.01606 0.753927 -0.53629 -2.88908 2.4441 
与	1.02991 -1.10008 -1.69104 1.19451 2.47717 1.94421 -1.48374 -2.45137 -2.11341 0.317822 0.875422 2.12533 0.0479021 -1.79041 1.82085 0.211058 0.86996 -1.30908 0.422884 -1.30124 
调整	2.63721 -0.743676 0.67456 -1.51032 -1.26703 1.56953 1.3735 3.16972 -2.68253 1.71264 -1.02779 -4.52326 0.714641 0.477191 0.278706 0.227477 -1.10575 1.7392 1.58996 -1.56148 
大跌	-0.568505 -2.41172 -0.493223 -0.975808 -2.48061 -0.507657 0.731744 1.33953 -2.17646 -0.374804 -0.0622313 -3.50379 2.78706 2.11106 1.17984 0.279801 -0.18668 1.95139 0.235097 -0.720287 
真	-1.83158 0.231896 -0.105508 -0.408581 2.0038 -1.78775 -1.62025 -0.45654 -1.06933 1.73063 -2.60405 -0.366432 0.396406 -0.312341 -0.5008 1.32931 -0.333794 -0.314906 -2.8333 1.09745 
江铜	0.149693 0.349504 -1.16518 0.135691 0.885758 -0.0121523 0.599662 -0.578134 -1.43376 -0.738136 0.371119 -0.657351 2.23426 1.09689 -1.7084 -0.210821 -1.2055 -0.524699 -0.266969 -1.19612 
股友	1.1351 0.686445 0.410339 -1.32965 0.0530619 0.75816 0.0881407 -0.655521 0.647969 -1.11131 -0.161413 0.402327 0.798066 1.5384 0.0381704 1.36013 1.66006 -0.338953 0.558022 0.724455 
低	-1.32646 2.8225 -1.06942 -1.48828 -2.23639 1.34934 1.05879 -0.315176 -5.83569 -0.664825 2.08883 -1.53867 -1.25987 -1.36025 -2.73613 -0.714064 0.372393 -0.414947 -3.72123 -2.36936 
还要	-0.857957 -3.87849 -0.275466 -1.61779 -1.53651 -2.73149 0.809634 2.94496 -0.0362887 -0.383923 -0.217567 0.11596 1.65687 -1.87729 -1.88214 -2.00876 -1.41747 -0.255923 -1.06726 -0.212806 
不能	0.0632232 0.314698 -1.36987 0.102806 -2.52733 -0.757201 -0.0764763 -1.56833 -2.04999 0.894757 -1.4711 -0.427274 -0.680691 0.478052 -1.37644 0.284651 -0.791158 -1.71749 -1.9504 2.18318 
庄	-1.52264 1.57576 -2.01813 -2.16888 1.26821 -0.482022 -0.735293 0.822568 0.551544 0.633679 -2.2653 -0.031278 0.680429 2.59785 -0.193239 1.40033 -1.28565 -0.00295468 -2.18945 -0.0351705 
自己	-0.13524 1.22878 -3.76441 -1.66253 -1.90409 -0.230084 -2.97278 -0.252243 0.870459 1.28726 -2.75947 0.859599 -1.80228 0.362987 -2.47511 0.124775 1.03418 -1.21399 -1.86598 0.646922 
筹码	-2.70294 0.977971 -2.87569 -1.92861 -1.43948 2.51572 -1.06627 3.95608 1.66876 1.88641 -0.0470101 -1.5471 -0.189472 -0.710746 -4.17899 0.746246 -0.7144 -2.91015 -2.79496 -1.71649 
多少	0.213186 -0.382719 -0.0824959 0.187168 -0.310638 0.398477 -2.36075 0.195906 -0.348485 -1.23435 -2.9691 -1.02831 0.384335 -2.40326 -3.35951 -0.711658 -1.25339 -0.771418 -4.05491 2.04087 
该	0.82112 0.519303 -2.38782 -0.435716 -0.435722 -2.07926 -0.411175 0.809376 -1.2255 -0.240852 0.617279 -0.465783 0.302104 -0.840451 -2.06995 -0.77426 0.334731 0.0650142 0.172506 1.85376 
关于	5.74885 0.797936 -1.53754 4.44171 4.66392 5.14759 -0.515856 -1.56001 -2.39128 -2.19015 0.455915 4.15003 2.31987 -1.51367 0.866542 -4.7902 3.91031 3.16949 1.93372 -1.13527 
价值	3.33246 1.35084 -2.03921 -1.08639 0.188457 1.11873 0.773562 -3.16949 1.69929 4.41965 -1.67781 1.5001 2.21998 -0.948981 -2.70243 -2.21865 -1.96688 -1.19421 -1.49149 -1.26689 
如果	0.411014 -1.38231 -0.0685917 -0.625438 -0.263356 0.304484 -0.682142 -0.480857 -2.03795 -0.458346 -1.74335 -0.987314 1.57365 -0.79914 -1.02349 0.135458 -1.29675 -0.371039 0.0821527 1.07086 
今日	0.483945 -1.73091 2.24258 -1.35787 0.213769 1.11662 0.569342 -1.34792 -2.97274 -1.29184 0.411845 0.571522 0.668458 0.0787343 -0.243274 2.15596 -0.817392 0.0613747 2.29745 -0.358704 
持有	2.59945 0.828061 -2.21723 -0.141521 0.556133 4.62303 0.713283 -2.68614 -1.30846 3.06223 0.568871 -4.32346 -0.927315 0.234813 0.142887 0.0542012 0.457375 -0.663277 -0.446069 0.621037 
?	-1.13394 1.22143 -1.49798 1.23932 -0.55943 1.2545 0.790883 1.33772 -1.04683 -0.101673 -1.31174 0.926954 1.31641 -0.93769 -1.16879 -1.67902 -1.07022 0.00305719 -1.06284 3.34523 
反弹	1.71409 -0.647843 1.01033 -2.49771 -3.41087 0.0176195 1.93 1.3273 -2.04956 2.05103 0.461292 -3.55297 1.61468 1.13103 0.917255 1.04538 -0.904859 1.27653 -0.228506 -2.09061 
下周	-0.319335 -1.84113 1.17689 -0.158681 -2.02146 -0.0876455 1.37996 -0.452718 -2.12426 -0.67865 -0.705986 -1.00582 0.587268 -0.416945 -1.66339 1.21284 -1.44491 0.752845 2.56212 -0.427744 
赚	2.06282 0.244911 0.601734 1.32484 -1.16304 1.73763 -0.873586 1.37681 1.556 1.41607 0.970418 -3.6376 -1.72965 1.53848 -0.638677 1.81964 0.191557 -1.87032 -5.04999 1.52937 
尾盘	-2.345 -0.786277 1.17682 -2.64831 -0.463081 0.0496697 0.458501 2.55285 -1.43312 -1.13333 1.38078 0.0545959 2.30211 1.53987 -1.09385 2.86771 -0.740039 -1.07984 0.465474 1.00203 
垃圾股	1.32338 0.389075 -0.690599 -0.945202 0.868129 -2.89555 0.654713 -0.972593 1.35744 0.911348 -0.121723 -1.21634 1.71572 1.24844 -0.560796 -0.938627 -0.182516 2.02234 -2.61097 -0.475709 
停牌	1.20646 -1.3405 -0.90377 3.06341 -1.60652 0.896101 -0.395923 1.55898 0.261061 -1.22236 -1.65478 -3.43344 3.64173 0.866806 -0.157545 0.0651592 0.903198 1.76141 1.60991 0.885561 
收盘	0.540077 -3.0938 1.97339 -1.37121 -1.72872 -0.0722789 1.1343 1.16453 -1.86792 -2.11052 -0.399342 -2.05639 0.730117 2.69961 -0.376986 1.55146 -1.43846 -1.22473 -0.801703 0.880202 
卖出	-0.0450328 -0.488624 0.890198 -1.9724 -0.386269 3.86573 0.0883106 -1.43036 0.289006 -0.780282 1.42326 -3.80129 0.5205 1.65598 -0.254412 1.34907 0.947579 1.72282 -1.33712 0.878 
破	1.14995 -2.10979 -2.08767 0.258433 -1.40994 0.548869 2.29539 1.77947 0.210159 -2.2838 1.52428 -4.4833 -1.14953 -1.15918 1.0605 -1.66205 -0.906411 1.91982 -2.41392 -2.32538 
退市	0.297152 -0.859766 -1.52192 3.01727 -1.61538 -0.335944 -1.39028 1.45996 0.196747 -0.252318 -2.3938 -3.18096 3.9094 0.211663 -0.0616436 -1.50306 2.72777 3.40223 0.0350072 -1.03878 
看好	0.665474 0.397311 -2.22415 -0.873069 -0.00447472 2.10979 0.25402 -2.27727 -2.76389 2.19813 0.24838 -2.62009 0.478129 -0.265263 1.26324 -0.583224 1.6012 -0.962865 -1.55817 0.131501 
呵呵	-0.739099 0.074876 0.61466 -0.855293 -0.382016 -0.411989 0.295798 0.936993 -0.0565324 -0.181039 -0.766471 -0.591712 -0.972297 -0.130328 -0.672139 0.487377 1.03522 -0.692624 -1.99721 1.82995 
宏远	4.93933 3.29678 -0.972424 1.55567 0.834198 0.122115 1.34766 -1.76262 -0.818754 -0.669606 0.589482 -2.78922 2.45199 1.88515 -1.266 1.05189 1.64714 -0.138797 1.76909 2.88123 
破见	1.18174 -7.5361 -4.87256 -5.09255 -2.74676 -1.10394 2.80022 4.98194 6.9139 -1.27848 3.6967 -0.910685 -1.43097 6.26234 4.96266 -1.59477 -1.07291 5.70901 -1.48044 -1.81855 
别	-1.49245 -0.375485 -2.69772 -0.961704 -2.53226 -2.67175 -1.8004 0.17021 0.483454 2.59187 0.182211 0.0803762 -0.963265 0.316027 -2.0581 0.03467 2.50303 0.0405418 -1.02722 2.30828 
跟	0.290259 -1.85073 -2.85156 0.632219 1.48509 -2.07829 -1.79769 -1.22089 -2.63102 1.81941 -0.444317 -0.44773 -0.363787 0.0208195 1.95758 -0.111594 0.548209 -1.87017 -2.24355 1.26527 
银行	1.45445 0.964998 -0.424891 2.44451 1.33827 0.29297 -0.444867 -0.482004 -1.38938 2.28976 4.239 1.14406 -0.5823 1.3212 -2.16288 -1.44576 1.2344 1.38512 -0.92721 -2.4789 
微笑	-0.89515 0.329184 1.01741 1.50707 -1.69386 1.33487 1.96207 -0.750174 -0.838162 -1.56394 -2.47168 -0.550997 -2.41736 -2.15547 -1.6058 1.61272 1.32091 -0.170114 0.752303 1.75901 
铜	0.384611 0.429298 -2.20534 1.4182 0.245616 -1.37466 1.40794 1.07913 -2.51627 -0.116884 3.75128 0.161854 1.33996 2.07759 -0.280151 -1.09268 -1.02791 -0.324812 -1.60778 -2.10689 
拿	1.45222 -0.575912 -2.36856 1.95679 1.51296 1.59964 -0.909626 0.991161 0.949643 4.58958 0.349007 -3.12922 -1.68278 -1.12732 -0.716887 -0.496837 -0.334236 -1.56062 -2.0907 3.94721 
准备	-0.397194 -1.22528 0.16596 -0.615261 -0.900801 -0.291403 0.516034 2.35628 1.3259 -0.205452 2.43554 -0.574275 -0.549328 -2.39401 -2.21182 0.439569 1.59588 -0.67465 0.429946 0.828186 
最	0.712811 0.900961 1.1219 0.292224 0.738249 0.304568 -1.36592 -3.42615 -1.09722 4.83024 -0.561895 0.86474 0.518718 -0.623666 -0.164284 1.43187 -1.46151 0.34088 -2.25625 -0.27772 
市场	2.1787 0.554291 -1.33048 -0.542 0.294089 1.23979 -0.077787 0.923998 0.406232 3.17563 -0.915535 1.87893 1.94697 -0.128219 -0.735574 -1.04275 -1.54349 -0.113717 0.848298 -3.88662 
开盘	-0.510277 -2.2953 1.35343 -0.14498 -2.20718 -0.207855 0.955365 -0.22133 -1.28857 -3.2271 1.40281 -2.07028 2.59899 2.40366 -0.690883 1.43981 -0.0365409 0.583512 -0.533895 2.06115 
进	-0.913386 -1.55338 -0.0536946 -1.20951 -0.842474 2.80674 -0.489972 1.17877 0.89116 -1.73632 0.725052 -3.45959 0.955215 0.77873 0.0277357 0.764985 1.10524 0.100145 -2.40173 0.83475 
一天	1.24042 -1.69664 0.900696 -0.550559 -0.920488 -3.87507 -0.778985 2.824 -0.0556011 -0.115459 -2.69802 -1.15285 -1.19327 0.772374 -0.913783 1.43463 -1.94728 -0.5455 -2.53773 1.45596 
以上	1.49546 -1.96785 1.17512 0.502208 -1.95271 2.34658 -0.0697756 -0.990403 -1.67381 -1.02618 0.451097 -1.43294 -0.827606 0.728132 -2.0412 0.401209 -2.51923 -1.00682 -2.11766 0.13005 
套	0.347604 -0.300523 -2.97387 -2.13658 0.663106 0.088716 -0.35122 2.22735 2.12662 -0.884337 1.24892 -3.92409 -0.463267 0.341354 -0.0919699 0.333927 0.473567 0.259693 -3.00122 3.53053 
那	0.302989 0.273258 -2.14254 0.672913 -1.49043 0.0580042 -1.02671 -0.164623 0.611138 0.188616 -1.27983 -0.451499 0.231995 0.716079 -0.431117 0.205558 -2.15846 -0.0422606 -2.34078 1.44857 
最后	1.31798 -0.808733 0.571169 -2.63687 -1.91474 0.230393 0.243111 0.918858 1.98152 -2.31388 0.194425 -1.67528 1.32731 -1.68421 0.00489518 2.33493 -1.44091 1.03388 -0.187788 1.1761 
抛	-2.2293 -0.295178 -0.154352 -0.955071 -0.536232 3.18047 -1.0928 2.31385 -1.67781 4.07415 2.34336 -3.61303 -0.434944 1.5919 0.0838096 1.09273 0.5688 0.890385 -2.65351 2.2165 
我们	-0.976059 1.05861 -3.35765 -0.506132 -2.3642 0.912231 -1.68242 0.340298 0.361814 0.871832 -1.00858 -0.69609 0.225128 0.702047 -2.04149 -0.0552392 1.06246 -0.352387 -0.907567 0.262766 
真是	-1.34159 -0.561912 0.717913 -0.358791 1.90376 -2.04721 -0.9641 -1.59547 0.363941 0.695372 -2.41211 -0.469761 0.145749 -0.69598 1.61226 1.87175 -0.104419 0.510169 -3.76292 -0.0479665 
希望	-0.397218 -0.347102 1.08247 -0.387699 -1.38014 0.197573 0.345634 -1.24443 -0.354616 0.500058 -2.47685 -1.54691 1.36397 -0.110011 -1.58432 0.324849 0.698843 -0.063668 -0.666609 1.13922 
鼓掌	-1.98793 1.19788 1.23614 0.820915 -2.07861 0.150266 3.12117 -0.256695 -0.268811 -0.125703 -0.61351 -0.742771 -2.33712 -0.211381 -1.54103 2.65747 0.784976 0.348183 0.68546 2.51253 
股份	2.60978 -0.00344204 1.33234 2.68397 3.29875 1.09948 0.231196 -2.4496 0.565672 -0.309519 2.24368 0.646977 0.262848 0.330934 -2.06625 0.670104 0.639298 -0.666451 0.232816 -0.591652 
小	0.231869 0.97299 -0.461021 -0.668834 -1.38902 0.959845 -2.20518 1.03558 -0.531624 -0.475167 -0.0116246 0.196614 -1.49254 -2.13244 0.231417 2.32508 1.30281 -2.15169 -2.66389 -1.15066 
过	3.21642 -0.130283 0.245688 0.947588 -1.46868 -1.87201 -0.2961 -0.0710325 -1.29742 0.162007 -1.3774 -1.89368 -0.318883 0.972983 -0.518388 -0.369624 0.192932 0.321135 -1.62218 1.62225 
从	2.99951 -3.02798 -0.25207 -0.369915 1.1653 0.619584 -0.844404 0.346735 -1.49743 -1.25758 0.338159 0.165159 -0.7041 0.0311014 0.401454 -1.08357 -0.604582 -0.512231 0.168527 -0.598489 
重组	0.964432 0.703997 -1.3263 4.78375 -1.24351 0.53916 0.237404 0.973542 0.813654 -0.292506 -1.13572 -1.53988 2.94724 -0.530377 -1.51776 0.076575 0.419862 1.32356 1.70977 -1.37699 
那么	-0.990596 -0.378501 1.05997 1.47051 1.27227 0.10375 -2.28278 2.97886 -2.00429 4.07289 -0.307988 0.963716 1.56845 -0.305928 -0.29794 0.384438 -1.55877 -1.92978 -3.88676 2.66133 
满仓	-1.17809 -2.72918 0.475809 -2.04549 -0.433579 1.4912 2.8202 -1.73947 2.94513 -0.900456 0.152088 -2.85539 0.272929 0.0317048 -1.77446 0.579904 0.87086 -0.728449 -0.0906593 -0.0805207 
涨停板	-0.326023 -0.442963 1.0872 0.810545 -1.58886 1.4453 0.914703 0.231218 0.299204 -3.18689 -1.46411 -1.6747 2.1172 0.40217 0.916755 3.24701 -0.76914 -1.83146 -0.906281 0.00344823 
连续	1.08703 -2.05536 1.95887 0.248227 1.74938 -0.24608 0.112962 1.45596 -1.80131 -2.38641 0.577559 -0.992473 1.79289 -1.2417 0.44532 3.35842 -4.08611 0.273641 1.21102 0.622629 
吃	-1.72586 -1.93172 -0.615438 0.0226252 1.29369 1.8155 -0.927729 2.4448 1.98818 1.04719 -1.37707 -2.52852 -1.66472 0.448284 1.08206 1.98137 0.181139 -2.00791 -2.57678 1.93841 
傻	-2.02327 3.28209 -2.89496 -2.2972 -0.109735 0.470834 -0.10165 -1.13506 1.56239 -2.15217 0.607687 -0.240983 0.573829 2.14943 0.31932 2.04788 -0.153889 -0.463611 -5.67207 0.839049 
起来	-1.66005 -1.27198 -1.96749 1.06708 -1.12635 -3.20555 -0.158459 0.821626 -2.58794 0.22805 -1.57108 -0.665507 -0.915993 0.626332 0.405175 0.482388 2.09724 -2.76621 -1.75762 -0.589777 
前	3.32489 -0.483623 -0.959521 0.401715 -1.1533 -0.283337 -1.83463 1.19378 -1.32546 -3.00303 2.62949 -0.286095 -0.238179 0.4446 -1.38846 1.2818 -2.08713 1.82797 1.10387 1.96683 
小散	-1.40332 2.17711 -2.52699 -2.78755 -1.73232 1.06555 -1.50242 1.60965 1.09517 0.424215 -0.267701 -0.0108523 0.657767 1.10017 -2.87117 0.263221 1.43291 0.163676 -0.937177 0.806848 
新	3.05923 0.0119803 -0.839625 0.812198 0.289996 0.648343 0.389943 -0.0549447 2.11621 -1.10422 -1.19153 1.85839 0.00667407 -3.32126 -0.293819 0.260052 0.448085 -1.68456 1.32033 -3.10896 
买进	-1.19431 -1.68686 0.539363 -1.19033 -0.19848 3.32323 1.0882 -1.42015 0.352758 -0.437399 1.62899 -3.38702 0.922984 0.697599 -0.662228 0.794858 0.265685 0.340459 -1.18427 0.458261 
万股	0.0563141 -1.26231 1.52705 -0.207549 1.68925 3.10267 -1.51315 -0.00176808 1.4656 -2.5211 0.949463 -0.852062 0.248456 1.5194 -4.20089 0.808311 0.522452 -1.38677 -2.14389 0.593888 
估计	0.107276 -1.67101 1.10508 -0.435566 0.538162 -0.294272 -0.383248 1.51424 -1.61902 -1.27868 -1.37575 -2.33219 1.49074 -0.704152 -1.07857 0.382923 -0.600955 0.407585 -0.254406 0.221248 
完	0.519025 -1.28933 -0.664687 -0.523014 0.196211 -2.26849 -0.948589 3.29781 0.0306226 -2.07353 0.579389 -1.63698 -0.52092 -0.218506 -1.01563 -0.746081 1.14749 1.51385 -1.48165 -0.134329 
可	1.77678 -0.162114 -0.53502 -0.964398 -1.45234 0.90788 1.00403 -0.754741 -0.835063 0.429951 1.1258 0.404218 0.615054 -1.73564 -1.47747 -0.975633 -0.195019 -2.00116 -0.658707 0.487417 
洗盘	-0.173961 1.70327 -0.977986 -3.86532 -1.32204 1.94654 0.364448 3.0083 -0.910942 0.521371 -1.37835 -2.92675 1.15074 0.569533 -0.156431 2.51383 -1.1233 1.13622 1.29833 -0.0930463 
突破	1.50641 -0.370977 -0.0518585 -1.49028 -0.766941 2.69496 2.96954 1.188 -2.97717 -0.425803 -1.88137 -3.60013 0.031178 -0.789496 0.7859 1.55613 -3.03898 -0.083667 2.15756 -0.420794 
只有	0.214145 -1.20862 -0.120863 -0.736226 -1.05041 0.0322934 -1.89827 -1.08944 0.0502452 0.973161 -0.199428 0.0946191 0.664374 -1.44752 -0.177751 0.26181 -1.6442 0.0586366 -3.65346 -0.687099 
里	0.561127 -0.0121348 -1.16115 1.11197 -1.72854 -0.735222 -0.761591 0.0193066 1.22914 0.206246 -1.42391 1.1541 1.19301 0.715206 2.92425 -1.91038 3.03626 2.07425 -3.13105 -1.19222 
牛	-0.13665 3.41656 -1.94233 0.082599 0.0933013 -0.372293 2.52105 -1.21448 -1.16173 -1.14555 0.162612 -1.40169 -1.37857 0.742225 1.60605 2.73778 -0.509493 -2.02451 -2.70258 -0.161464 
拉高	-2.21695 -1.10241 0.0923017 -4.78948 -2.17885 0.596207 -2.27212 3.94946 -0.921812 -0.0924966 0.340208 -0.913426 1.65831 2.35595 0.11856 2.40306 0.116021 2.67975 -0.503142 0.942428 
成本	0.842807 -0.706251 -0.289875 -1.74247 0.0488169 4.70349 -0.64198 0.599634 -0.125222 0.0260884 -0.04359 -1.76131 -1.39306 0.66258 -2.19448 -1.62579 -0.49523 -0.730652 -3.4018 0.990666 
不涨	-0.263592 -0.630003 -3.54465 1.12828 -0.117143 -1.79151 -0.465865 0.636317 -3.96508 1.41902 -0.22808 -1.63449 1.45322 0.251717 1.23699 -1.98333 -1.96067 0.518001 -3.2639 2.34812 
减持	1.42575 0.218029 -2.02609 1.45094 1.10482 4.81483 -4.13165 3.31598 -1.11448 -1.13887 -0.821396 -2.9255 0.893414 0.919106 -0.517965 -0.145895 0.388866 2.56655 -0.331598 0.132587 
倍	2.45902 -0.695693 -0.909423 1.65425 1.2575 0.770182 1.03785 -2.1252 -1.97499 0.326367 1.94697 -2.06834 -1.67629 -0.335969 -2.36556 -0.618194 -1.84528 -2.47004 -3.81978 -2.404 
万科	0.148108 0.499435 -1.28399 2.23559 0.418991 -1.2481 -0.191741 -0.23987 -0.628327 0.234959 1.28025 0.336584 1.52281 2.57367 -2.04013 1.71943 -0.363532 -3.11019 -1.10261 -0.766767 
短线	1.50888 0.87063 0.585707 -4.10772 -2.23661 1.29209 -0.913972 -1.6274 0.453393 1.54662 -0.57324 -0.0469288 -0.857599 -0.662884 -1.74553 2.56481 -0.119541 -1.15314 -1.054 -1.47086 
龙头	1.83163 1.89109 -0.589093 2.09554 0.552419 0.372919 2.6625 -2.66556 -1.20934 1.42399 1.71964 -0.283488 1.32324 0.0730887 0.865089 1.34754 -2.37552 -0.505496 -0.629362 -2.01415 
这股	-0.213359 1.66765 -0.838749 -0.801336 0.23251 -1.43423 -0.309575 0.913222 -0.899407 1.09962 -0.779248 -0.862296 0.656105 1.24786 -2.14165 -0.768457 0.916493 0.627992 -1.88722 1.35732 
持股	1.45772 -0.100953 -0.191634 0.614551 0.78238 5.50101 -1.4567 -0.402627 -1.8258 2.1419 0.480823 -2.21974 -0.398753 -1.31093 -1.65379 -0.414406 1.77183 -0.399607 0.274742 0.514428 
真的	-0.741002 1.27864 -0.919578 0.262675 0.242047 -1.02591 -1.12007 -0.880486 -1.3211 0.323326 -2.97366 -1.88914 1.74084 -0.0475336 -0.862426 1.0322 0.141021 0.473044 -1.46309 0.985966 
清仓	0.685783 -1.144 1.32662 -2.01404 0.595855 1.27089 0.552796 -0.341647 0.0720271 -0.187128 1.0606 -4.19224 -1.25368 1.82235 -0.526962 0.725304 3.16166 2.08003 -0.287279 0.353425 
一直	-0.232364 -1.32534 -0.526339 -2.60998 1.05731 0.092571 -2.42532 1.17683 -1.66781 0.632481 -1.09575 0.937987 -0.168221 0.0837637 -2.20684 -0.737122 -1.69926 0.60071 -1.05991 0.507264 
抄底	-1.13877 -1.32494 0.255235 -1.69348 -1.93021 2.78122 1.22714 -0.260539 2.12393 1.06422 1.5906 -2.33921 0.490597 -0.289743 -0.821981 1.26446 1.09081 -0.345037 -0.539181 0.258765 
国家队	-0.00804153 1.33087 -1.77488 -1.56129 -0.443946 1.8373 -2.71254 1.43617 0.763541 1.44535 0.380246 -0.357536 0.246075 1.11214 -3.37261 2.15928 -0.476139 -0.467416 0.245336 -0.866176 
上市	4.96146 -1.87359 -0.175815 4.5555 -0.00580519 1.54953 -0.875863 -0.715636 0.172866 0.155672 -1.13213 -1.61531 2.6721 1.11805 0.673701 -2.72953 -0.0634744 2.594 -0.97561 -1.76587 
狗	-1.06082 0.640065 -3.09664 -1.82879 1.0243 -1.04595 -0.866221 -0.595306 2.00038 -2.51177 -2.15884 0.965425 -1.38039 1.96206 1.2522 1.05083 -0.579103 0.916589 -3.03824 -0.400394 
关注	2.06016 -0.761227 0.928728 0.43917 0.105796 3.0915 0.913575 -1.73624 -0.792695 3.19453 0.698543 -1.52339 0.90535 -1.17052 2.58208 1.2148 1.61451 -0.225893 1.48241 -0.639117 
打压	-2.37761 -0.814489 -3.74691 -2.22282 0.80456 3.33003 -1.91878 2.84677 -1.24947 0.283282 -1.03996 -2.70869 2.24347 0.364374 0.601404 0.858096 -2.25702 0.762465 -0.402623 -1.06492 
加油	-1.80572 0.243226 -0.864895 -0.071615 0.896513 0.172302 3.56156 -1.43456 -1.30956 -0.438029 -0.392837 -0.352245 -1.17563 -0.541976 0.568771 0.896535 0.815219 -2.00359 0.434938 1.00051 
市盈率	2.14067 -0.213682 0.50268 2.4463 -0.657322 1.48564 0.888686 -1.68511 -2.76795 4.72165 2.08555 -1.73445 0.961484 3.93045 -3.31245 -2.15751 -2.4699 -0.0986242 -4.36262 -2.1761 
回调	0.753973 -0.943479 0.0482119 -1.58986 -3.64477 0.526946 2.05865 1.86199 -2.50259 2.00409 0.118016 -4.28944 0.283909 1.23317 -0.737708 0.532926 -1.11411 0.764651 0.496328 -0.507641 
赶紧	-2.79434 -0.826255 0.305708 -1.75539 -0.866457 -1.89007 0.521055 -0.594458 0.363566 -0.262171 1.25743 0.112348 0.109999 -0.974074 -2.90679 -0.409349 1.94224 1.79471 -0.535613 2.3527 
请	-0.459913 0.291339 -1.47322 -1.44837 -1.79613 1.91513 -0.375968 -1.03766 -0.395046 0.187287 -1.32112 2.2664 0.597234 -0.864219 -1.20382 -0.920754 2.51588 -0.574706 1.59928 1.92255 
一定	-0.971807 -1.55667 -0.321744 -0.841418 -1.19845 -0.343768 -0.918405 -1.34647 -1.2628 -0.132226 -2.57241 -1.78731 1.19173 -1.4297 -2.55589 0.858741 -0.170074 -0.406946 0.44783 0.176321 
情况	1.58111 -1.23404 1.02184 -0.28169 0.820563 1.85847 1.35417 2.69136 -0.60121 0.818141 -1.37292 2.05466 4.25553 -0.0310253 1.78004 -2.65211 -0.910216 -0.549638 -0.705222 1.50179 
看来	-0.415353 -0.107044 0.963143 -0.726869 0.654788 -0.682743 -1.07205 1.42206 -1.76689 0.413538 -1.38689 -2.19602 1.81491 -0.252768 -1.50082 0.550163 0.616327 0.762054 -0.765384 0.0766117 
流出	0.264282 -0.792563 2.43631 -1.35912 2.16687 5.07003 -1.08483 5.25127 -1.57333 -0.405782 2.27927 -1.60165 1.54902 0.394626 3.92346 1.16251 -1.43285 2.53714 -4.04491 -0.153934 
一点	-0.120474 -0.610827 0.642911 -0.209281 -1.93799 -1.34834 -0.816184 0.580703 -2.03973 0.841797 -1.73347 -0.217763 0.619148 -0.512854 -0.604022 0.118336 -0.233051 -1.22559 -2.81331 1.04216 
分红	1.31429 -0.660889 -0.581734 4.24747 -1.10629 3.04043 -1.14368 1.93903 -0.504527 1.12809 -1.81869 -2.45673 0.21695 0.854741 -2.61773 -2.06055 -0.675831 0.136242 -2.36105 0.0223556 
几天	2.51223 -2.44872 2.06658 -1.39752 -0.246311 -2.11958 -1.41736 2.4817 0.610987 1.22943 -1.59946 -0.361407 1.74601 1.24894 -0.70831 0.729052 -0.951011 -0.962173 -1.47733 0.557131 
问题	2.22214 2.45863 1.10938 0.373596 -0.586534 1.31838 -1.00727 1.10308 -0.712636 0.502338 -3.27031 -1.00742 3.7041 -0.349691 -2.27426 -0.940989 0.317924 1.6643 -1.00061 -0.10791 
窝囊废	-8.43483 3.11256 -2.50006 -2.99936 -0.446806 4.2681 6.83338 3.60737 7.32342 0.594533 -3.53222 3.77091 1.01071 0.647721 -2.06589 -3.03301 5.10603 0.640586 -2.49753 -5.30178 
加仓	-1.12377 -1.11326 -0.894176 -1.7524 -1.8574 3.59667 1.54432 -0.624923 -0.102971 0.703691 1.47193 -3.66522 0.908909 -0.138507 -0.0780685 0.429886 0.521635 -0.134611 -0.677942 0.79821 
基金	0.814641 1.5869 -1.3281 0.00039206 1.99349 2.79623 -2.88372 -0.405073 1.93521 2.34703 3.19946 1.44268 0.647137 1.21721 -2.99967 1.15265 0.35527 1.10542 0.0916964 -1.90701 
割	-0.0920664 -3.47501 0.145638 -2.15402 0.299949 -0.451714 1.63472 0.94646 4.15469 -0.0667599 -0.308914 -4.40698 0.532963 -0.621364 2.34599 -0.612732 1.75914 3.08818 -2.49507 1.30083 
朋友	0.888643 2.25187 -0.319414 -2.52136 -0.880532 2.67531 0.284828 -0.658343 1.89275 1.10808 -0.517647 0.734595 1.10863 1.88653 -2.6629 -1.00286 5.22417 -2.09617 -1.11619 1.46291 
跳水	-2.26927 -2.18649 -0.093031 -0.656963 -2.38367 -0.512567 2.06635 2.31998 -1.25363 -0.16246 -0.275975 -2.36261 1.54474 1.47116 3.47405 1.54741 0.697114 1.04864 0.360699 -0.404207 
哈哈哈	-2.5354 -1.59851 -1.00097 -0.0436223 0.24352 -0.241192 2.62144 0.314955 2.8723 -1.35206 0.0642555 -0.982958 -0.712711 0.00752744 -1.17724 0.280088 0.943357 -1.63633 -1.85439 1.29057 
一样	1.19496 0.263595 -2.79965 0.32189 1.4016 -1.30164 -2.16741 -0.202006 -1.56251 1.34447 -0.30799 -0.0190244 -0.655155 2.8777 1.2355 1.23139 0.00694437 -0.679504 -1.10568 -0.0066851 
利空	-0.304572 2.62983 1.07425 1.71727 -1.74213 0.26299 -0.0356856 3.72827 -1.81905 0.671521 0.457254 -0.132103 5.43324 1.1216 -2.15863 -0.324956 -0.966153 3.82973 0.46377 0.474767 
几个	0.665845 -0.855837 1.22806 0.885438 -1.28847 -0.655857 -3.22983 1.23989 1.08071 1.08974 -1.29391 0.600533 0.0575024 1.62418 -1.79564 2.55879 -2.84441 2.07348 -0.328633 4.03762 
老子	-1.56491 -0.587699 -1.32589 -0.99165 0.188764 -0.962119 -0.194774 0.538021 0.977254 -1.58961 -0.297388 -1.16517 -2.13843 2.88423 -3.26149 0.195973 0.203245 -0.519019 -2.36839 1.70233 
～	-1.08071 -1.21934 0.697075 1.3043 0.339992 -2.31151 1.46638 2.14593 0.872329 1.65925 -0.204848 -1.53224 -0.880396 0.228533 -1.85698 0.402756 -1.55823 0.124 -1.74499 0.0469867 
周一	-1.01329 -1.44743 1.54188 0.0209804 -2.16867 -0.179689 0.465759 0.0281982 -2.90485 -0.513532 0.625286 -1.06162 1.98841 0.69469 -1.5611 1.56329 -0.439339 0.668803 1.48678 0.826112 
恒逸	2.93403 -1.32667 0.417433 0.689279 2.51371 1.49089 2.83655 -2.57052 -3.07663 -1.07745 -0.497361 1.24519 3.72023 0.726 0.544592 -2.46496 2.05046 -3.89318 0.141112 -1.40515 
数源	0.340149 1.00207 -0.26005 0.488232 1.37326 -0.328441 1.45696 0.0663096 -0.742984 -0.105042 -0.548757 -0.1591 1.29149 0.794698 -1.35331 0.319473 -0.0502629 -0.841078 1.16778 0.463295 
股民	0.53 2.36592 -2.71214 0.166713 -1.66337 1.1444 -1.3413 0.17289 1.99128 1.7329 -1.60427 1.0851 1.33147 1.7336 -2.50739 -0.71197 2.37041 -0.188133 0.0218396 -1.55089 
块	0.049644 -1.88861 0.105699 -1.92617 -1.28755 1.79218 0.873409 1.41598 -0.202947 -0.741375 -0.414465 -2.00788 -0.911035 1.66351 -3.30749 -2.42738 -1.06444 -1.43707 -4.35546 0.926992 
不到	1.43255 -1.13454 -2.23038 -0.88899 -1.07009 0.873288 -1.50863 -0.487409 -0.643307 0.261913 1.51012 -1.68734 -3.23053 -0.369475 -1.62277 -0.228081 -1.90334 -0.862024 -3.84921 1.52019 
增长	3.05313 0.445706 1.2521 4.75707 0.423376 3.38326 1.25536 2.29853 -4.64781 4.19685 0.312204 -1.38017 -1.06976 0.819829 -0.873046 -0.758856 -2.3839 -0.548261 -0.698954 -2.44478 
打	-1.18038 -3.42134 -2.73372 0.74695 0.0739611 1.43647 -0.868903 2.13169 2.50902 1.05921 -0.0263632 -1.87552 -0.264239 0.252244 0.549043 0.503761 -2.34183 -0.709374 -0.940232 1.69311 
更	-3.03631 -0.932486 0.535713 0.880312 -0.507867 0.626752 -0.622555 -0.862567 -1.37564 5.50186 -1.97699 -0.25922 1.00642 -1.22354 -2.14164 0.49525 -0.838958 -1.79785 -2.12421 -1.59678 
见	1.66894 -3.24026 0.566345 -0.55762 -0.996284 -0.80791 1.10837 -0.610257 -2.16722 -0.737108 0.0335118 -1.91596 -1.71291 -0.210301 0.441461 -1.15302 0.320345 0.529769 -0.362158 1.45351 
是不是	-0.389217 0.133618 -0.162288 0.45435 1.52179 -0.267733 -1.30431 0.217827 -0.84122 -0.792815 -1.15973 0.215723 1.9597 -0.981668 -0.636349 -0.15646 -0.0329169 0.917092 -0.742371 1.89836 
石化	0.495331 -2.59239 1.74873 2.33305 2.86008 1.99395 -0.238787 -2.98181 -3.31456 1.39104 -1.36914 2.18771 -0.328218 1.91373 -0.604347 -0.655991 -0.635925 0.901666 1.77116 0.164508 
左右	1.35484 -2.72023 0.671595 -1.20914 -1.19528 2.5969 0.423504 0.989631 -1.77243 -1.10808 0.113372 -2.39696 -1.38054 0.659364 -2.86283 -0.441108 -2.95666 -0.619491 -1.19645 0.485737 
回	1.00947 -1.42745 -3.46815 -2.45033 -4.03358 -1.25535 2.5469 0.966266 0.639088 -2.41938 -1.00058 -2.00508 -2.1748 -0.687768 -2.65162 -0.921614 -1.93541 -1.13286 0.00901237 1.39118 
发展	0.716158 1.57342 -1.37547 5.13027 0.204677 2.27343 0.948437 0.000975792 -2.13637 2.93934 -0.462457 0.273425 0.0893866 1.09008 0.126258 2.21377 -0.57799 -2.52702 1.88113 -2.37255 
进入	1.77147 -1.47586 -0.435042 -0.558814 0.557271 2.45304 0.867839 0.485042 0.376482 0.0546741 1.60561 -2.14092 0.528719 -2.64896 1.25134 1.15631 -0.810072 0.437388 1.41368 -2.38568 
放量	-0.0884732 -0.5445 0.750262 -3.07471 -0.12703 -0.0584709 2.02278 2.05534 -3.03109 0.278348 0.407823 -1.06886 1.66966 -0.84091 -0.236499 1.20395 -2.81956 0.0186083 0.961896 0.0534768 
粤	4.36221 -0.527736 0.0626325 0.313794 4.4484 -0.765109 0.722282 -0.562748 0.896582 0.0732133 -1.19601 0.0149908 1.95981 0.914357 -1.92656 2.34934 -0.265483 -4.36646 2.89503 2.44544 
但	2.24628 0.820394 0.113898 -1.20437 -0.745418 0.487966 -1.21545 -0.26991 -2.37909 2.12842 -0.859371 -1.25856 1.67054 -0.741242 -0.806507 0.355488 -0.0406081 -1.01863 -1.46452 -0.773251 
消息	0.956118 0.499415 1.34674 1.49387 -0.965003 0.573653 -0.778806 2.72825 -0.104647 -0.26357 -1.4106 1.08059 5.31019 1.4555 -0.400345 -0.338433 1.15481 1.91885 1.12515 -0.0376589 
以下	0.219132 -2.23283 -0.80271 -1.16439 -1.90698 3.14445 1.16328 -0.691691 0.0955409 -1.23013 0.145516 -2.63979 -1.62064 0.522536 -3.99878 -1.96867 -1.53153 0.150857 -1.63754 0.826776 
全部	-0.319962 -1.62622 0.101556 -1.01972 1.6884 0.0276656 -0.972731 -0.867189 1.35917 -1.79505 1.70331 -0.69426 -0.644909 -1.08561 -2.23099 -0.00659738 2.08577 1.04747 -0.381171 -0.468534 
肯定	-0.432651 -1.53719 0.763041 -0.80623 -0.438207 -0.778563 -1.03434 -0.894033 -1.30709 -0.177024 -1.61034 -1.40771 1.97121 -0.546255 -2.14897 0.758364 -1.21846 0.419149 -0.434397 0.528078 
每天	0.228098 -0.553437 0.455392 -1.87248 -1.15881 -1.207 -1.90748 1.12095 -0.832602 -0.223161 -0.139002 1.61183 -0.0571951 1.45194 0.687573 1.89375 -1.81614 -0.212885 -2.72888 1.63029 
时	0.870506 -2.41654 -0.426892 -1.84726 -0.354817 -0.25319 1.31904 0.248409 -0.892348 0.968826 1.34414 0.298451 1.14827 -0.993672 -1.35687 -2.47211 -1.45983 0.431647 0.219914 0.644236 
价格	1.64712 -0.791135 0.648842 -1.24086 0.373864 1.88114 -0.562819 -0.234028 -1.26019 0.638592 -0.124266 -0.044572 2.90605 0.843887 -2.79106 -1.74185 -2.24325 -0.505317 -2.17245 -0.30217 
风险	2.396 1.22483 1.59563 -0.865771 -3.90747 0.366962 -0.678932 0.828411 -0.633645 1.62535 0.819469 1.45438 3.06791 -0.30556 -3.5904 -2.05017 1.57752 2.61958 -0.397799 -2.36919 
手	-1.42792 -0.285647 0.330336 -2.7721 0.215101 3.41019 -0.0442389 1.7912 1.44329 -3.03409 -0.542109 0.510617 -0.924807 1.00231 -1.60033 0.624802 -0.533359 -1.73969 -3.15583 2.45854 
年底	1.85495 -2.43038 1.4239 -0.252201 -2.51541 0.492995 0.133148 1.24025 1.34146 -2.02268 0.160709 -2.853 -2.33608 0.283165 -2.24503 -0.713224 -0.496632 4.44285 -0.864945 -2.04374 
下来	-1.83117 -2.52854 -2.66605 -0.824489 -2.49155 -0.67171 0.488648 2.63604 0.930392 -0.870961 -0.744474 -2.49401 -0.923008 0.061385 -1.10778 -0.534871 -0.494256 -1.08648 -1.96447 0.0939689 
被套	0.352777 0.292888 -1.8376 -2.10535 -0.79651 0.426106 0.0495877 0.710528 1.09028 0.0319437 1.31774 -3.42896 1.02413 -0.020095 -0.649667 -0.150125 1.69667 -0.195429 -2.64065 2.04366 
增持	1.309 0.790274 -1.24935 2.76358 0.731007 5.74098 -3.10091 2.5024 -1.47638 -1.09265 -0.244663 -3.89104 2.11864 0.594427 -1.44127 0.0846626 1.19109 0.880785 -0.901166 0.363687 
第一	0.640693 0.650323 1.04103 1.26173 1.44268 1.14086 -0.142315 -2.34009 -1.0448 -0.63855 0.9882 -0.15018 -1.00006 -0.975553 0.0533495 3.33506 -2.83856 0.891726 -0.684369 -2.01064 
叫	-0.70796 -1.6151 -2.21182 0.360957 0.245877 -0.377511 -1.02617 -1.53909 0.812001 0.631063 -0.67655 0.593875 2.36307 0.00644395 1.48129 -0.845143 0.273291 -0.719423 -2.46423 2.88484 
底部	2.156 0.913649 -0.469289 -3.15207 -0.700119 1.50637 1.53502 0.834636 -1.17155 0.749049 1.23956 -1.77843 -0.577146 0.186053 -1.50856 0.039983 -2.27757 0.950526 0.140714 -1.56785 
国企改革	2.74302 0.956943 -1.3978 3.54198 -2.63019 1.84963 0.57175 -1.01547 0.0810476 0.680743 -1.76952 -1.04998 1.00649 0.195911 -1.88954 0.464907 -1.45978 0.47325 1.69776 -3.44549 
唱	-2.72328 -2.86236 -0.0263283 -0.673404 -0.478198 1.49791 -2.71165 4.32936 1.953 5.46931 0.969261 0.330156 1.74137 4.00075 0.0255964 -1.17736 3.39513 -0.839719 -4.68469 -1.34206 
即将	1.4513 -0.134942 0.85189 0.114731 0.879458 -1.32793 2.24587 -0.592564 -1.01043 -1.81694 2.71557 0.806955 0.824483 -3.7178 -2.17079 1.26645 -0.744358 2.05812 4.34997 -1.89082 
哭哭	-1.28894 0.770825 1.48312 -0.325408 2.70556 -1.00674 2.33494 0.289523 0.91393 0.603273 0.957905 -0.4685 -1.86169 -0.486822 -0.949396 -0.78266 0.620387 3.01631 -3.49897 4.32761 
板块	1.79591 0.65956 1.12312 1.79934 1.52832 -1.15471 2.96951 -1.09613 -1.75116 2.70942 2.17723 1.51959 4.17882 0.747715 2.08336 0.417918 -2.08685 -0.653338 -0.728807 -2.56109 
小心	-1.88427 -1.5354 0.402252 -1.24222 -2.51232 -0.111617 -1.41095 0.954056 -0.224442 1.46754 0.0170848 -0.404417 -0.0900215 -1.33881 0.787935 1.99064 2.68882 1.31691 0.953146 0.403695 
大便	-0.470209 -0.397454 -0.533686 -1.08321 3.56871 -0.884851 1.54188 -1.10744 1.12455 0.403105 -2.26531 1.2108 -3.98861 -0.455744 0.231779 -0.752703 0.333339 0.612834 -3.27495 -1.49858 
时间	3.29456 -0.76433 1.37559 -1.06196 -0.673922 -0.0744859 -0.00998606 1.69918 1.90586 1.82018 -0.688906 -0.29062 0.65489 0.106056 -2.04966 -0.447693 -1.16582 -0.00271045 -0.27634 0.842085 
今年	3.88536 -0.229221 0.132471 2.10121 -0.687607 0.313871 -0.755744 -0.15258 -1.738 -0.643965 -0.256983 -1.01034 -0.272925 0.0644795 -1.97137 -0.260884 -1.92672 0.371992 -0.538046 -0.640268 
未来	3.92439 0.835609 -1.16297 2.49468 -0.793228 0.153697 0.606686 -2.62392 -1.82534 0.987921 -0.694019 -0.8549 -0.596918 -0.841272 -0.606767 0.758834 -2.13501 -0.30218 0.648727 -1.14099 
分析	3.27374 -0.729803 0.785099 -0.390037 -0.718579 3.14032 -0.489865 -1.22885 -3.47492 1.43685 -2.14115 1.75836 1.81483 0.539779 4.25574 0.942392 1.43454 -0.792326 2.00526 1.76686 
等待	0.654803 -1.75896 -0.725551 -2.00118 -0.273734 0.758478 1.96941 -0.674514 0.924821 1.80744 2.77953 -1.32404 0.2136 -3.12946 -2.07396 -0.300497 -1.24883 1.03972 2.29372 1.69364 
目前	2.78702 1.14789 -0.0802387 -2.06361 0.330521 2.2639 -1.06079 -0.713092 -1.82056 0.34233 0.420913 -0.103517 -0.252896 -0.619134 -1.32408 -0.02869 -1.53965 1.79115 -0.0689248 -1.56917 
感觉	-0.0541132 0.200226 0.0659219 -1.73029 0.586967 -0.189475 -0.0319824 0.660679 -1.14987 0.900885 -1.94927 -1.15752 2.37273 0.603355 -2.4612e-06 0.752296 0.358099 -0.7162 -0.315764 0.7479 
么	-2.267 0.207061 0.383599 1.04246 0.112678 -0.0857975 0.106721 0.32786 -0.940343 0.0343464 -2.15712 0.500757 0.995627 -0.892416 -1.36113 -0.273942 -1.10528 1.02212 -0.828939 3.42075 
赚钱	0.371415 0.995308 -1.71008 0.0896162 -2.36737 1.39858 -1.12906 -1.03975 0.291879 3.37882 -1.05797 -2.12406 0.158848 0.242589 0.360416 0.920168 0.295931 -0.071203 -2.35766 0.865678 
哭	-0.958435 -0.482282 0.436689 -0.252289 1.17832 -1.02654 2.57281 1.28662 1.8253 -0.271392 0.512857 -1.65236 -1.07951 0.836511 -0.432726 -1.26208 0.884023 1.77743 -2.02611 3.75504 
明显	-1.0746 2.24447 -0.027132 -4.79654 0.218329 1.31705 -0.314874 1.9356 -2.83442 0.0865557 -0.361436 0.954182 1.26917 -1.57715 -0.153762 0.876157 0.296298 1.21012 -0.187102 -2.06608 
医疗	0.480758 1.67496 -2.56267 4.69032 2.40542 1.75419 0.877947 -2.17854 -0.00297355 1.03492 -1.49928 0.0270663 0.84563 -0.943884 -1.6778 1.61556 -1.49416 -0.390194 2.90944 -1.85514 
市值	2.50965 1.16759 -0.310682 3.34814 -0.147984 3.12591 -0.721601 -0.159307 1.68675 1.7867 1.32513 0.874355 0.276841 1.60752 -1.89792 -0.106843 -3.53532 -0.0205543 -3.59682 -1.72461 
搞	-0.661403 -0.311055 -1.64217 1.64937 1.9404 0.586566 -0.49876 1.93763 0.842427 1.22907 -1.75659 -0.795675 1.15355 -0.506627 1.58754 -0.392179 -0.49706 -0.449558 -1.94166 1.54568 
重大	0.924276 0.164177 1.72508 3.50063 0.74482 1.81626 -0.463115 0.619374 -2.19735 -2.36239 -1.91916 1.42445 3.75437 -4.3713 -0.47477 0.467504 0.261855 3.52385 3.67593 -1.28818 
逃命	-3.56968 -2.18125 0.764831 -3.42529 -4.0242 0.877002 4.84248 -1.35372 1.52566 0.762866 0.880907 -3.66324 1.03974 -0.538665 3.40823 -1.0247 2.36113 6.81975 -1.47324 1.28085 
怕	-0.380902 -1.48145 -1.89254 -0.893054 -1.04098 -0.414996 -0.0871255 0.574922 0.98982 1.10471 -0.119323 -1.41988 1.56757 -2.15601 0.22711 -1.57094 -0.213072 -0.762844 -3.47769 2.96191 
交易	2.42452 -0.823679 0.254859 -0.723848 0.0903652 5.59118 -1.08717 2.69922 -0.815629 -2.55049 1.16426 1.12219 4.38637 0.248925 1.54407 -2.3086 0.4466 1.141 -1.21695 -0.717485 
证券	0.757228 -1.95897 3.09026 2.64861 3.01169 0.260968 -0.277941 -1.54067 0.235829 0.820757 0.457081 0.776505 0.71187 1.94148 -1.88817 0.812415 3.94261 -0.312205 1.51862 -3.69166 
资产	1.48867 2.5144 -1.62512 5.64366 1.0314 3.16948 0.713813 2.24691 1.56681 -0.054993 -0.0834438 -0.374612 2.99112 -1.89081 -4.14729 -2.1423 -1.00085 0.19208 -0.836176 -1.97889 
注意	1.1585 -1.02343 1.7246 -1.38261 -2.30047 1.24641 -0.699949 0.168515 -0.158103 2.27038 0.802439 -0.931994 1.3895 -2.32958 1.18467 2.11557 2.9146 0.372464 1.34328 0.543122 
一次	1.72599 -1.30466 0.751019 -1.15905 -3.70644 -2.08086 0.0568228 1.1269 1.69059 0.180231 -0.351804 -0.500228 1.7159 -0.100489 -1.02889 0.832179 -0.788236 -0.381457 -1.20201 1.39625 
马上	-0.290508 -1.75506 0.431942 0.784854 -0.946402 -2.40944 0.85257 0.83354 -0.632398 -1.02252 1.46245 -1.17767 0.361869 -0.931896 -2.21951 1.1248 0.488093 0.571291 2.00588 0.675689 
指数	1.06735 -1.26473 0.00613238 -1.37451 -0.831955 -2.23321 1.20764 1.33063 -2.70747 2.092 1.58526 1.40788 1.14103 2.05548 0.575485 -0.274657 -2.29338 -0.390251 -0.716318 -2.3999 
大单	-2.20695 0.599862 0.681359 -3.25565 -0.0050551 2.55666 -0.785402 4.8812 0.963427 -1.53739 1.42967 2.14158 0.882249 1.68235 -1.29544 1.2768 -1.38122 0.356089 -1.7912 0.694535 
难道	-1.33048 0.420783 -0.81552 0.639557 0.658615 0.30009 -1.37004 0.77038 -0.530123 -0.256994 -1.17966 -0.689724 2.02444 -0.233201 -1.61676 0.1662 -0.601784 1.08573 -0.566668 1.01789 
回来	1.13602 -1.55675 -1.76478 0.596344 -1.7661 -0.202844 -0.0929943 1.64233 0.934266 -2.14155 0.0844207 -2.41666 -0.901918 0.974874 -0.549855 0.339885 1.31141 -1.83911 -1.37331 1.7921 
低开	-1.19939 -0.497855 2.29968 -1.67159 -2.9263 0.743525 2.54547 2.5152 -4.28471 0.451368 1.13696 -3.5673 1.6547 2.27116 -1.02906 1.90242 0.00715247 -0.861215 -0.519608 0.252002 
有人	-0.814568 -0.0980792 -1.81911 -1.07605 -1.42601 0.43057 -2.91099 0.884605 -0.598089 -0.765859 -0.832181 0.969516 1.70278 2.19148 -2.24252 -0.0808785 -0.035846 0.0885999 -1.21236 1.29761 
投资者	2.61344 1.475 -3.78478 -1.09043 -0.682524 3.9484 -0.933173 -1.6665 1.06573 2.55261 -1.41013 2.28496 1.72914 0.367416 -1.44262 -2.34928 1.32521 -1.29071 0.361688 -1.49539 
终于	0.719353 -0.99622 0.777884 -0.779793 0.520449 -1.74194 0.471351 0.146186 -0.165563 -1.32345 -0.490774 -0.643975 -0.427822 -0.956135 -2.74787 0.148755 0.0255132 -0.176154 0.373031 1.40786 
趋势	3.15274 1.1202 -0.343683 -3.8476 -0.18405 -0.441101 2.51244 0.744572 -1.65607 2.96045 -1.23625 -0.288668 1.20163 -0.399302 -1.3991 -0.770369 -1.89175 -0.223901 1.7055 -1.12481 
压盘	-3.18632 0.721205 -2.26072 -2.414 -0.16007 2.5582 -1.61215 3.15724 -1.46327 0.210138 -1.07544 -0.289753 0.981161 1.22821 0.260229 0.98254 -1.54577 0.336669 -1.88666 -0.148678 
啥	-0.794851 -0.113192 -0.277219 1.4898 -3.06382 -1.22099 -1.89287 0.0433134 0.0208218 0.690492 -3.39134 1.07044 -0.222581 -0.687167 -1.82453 -0.729507 -1.87721 2.57198 -2.32595 3.37717 
看到	1.43231 -1.56402 0.778318 -0.5004 -0.121861 1.82935 -0.968608 -0.244309 -0.428739 0.631363 -1.84964 -1.76918 1.10983 0.283579 0.989091 -0.36341 0.522539 -0.279977 -2.02155 1.64234 
如何	0.376144 -0.750665 -2.073 -0.752053 -1.57003 -0.022348 -0.207934 -0.818709 -1.72772 -0.565581 -2.11278 2.04846 0.078009 -1.2033 -0.443636 -1.18964 0.715036 -0.732283 1.69868 -0.227758 
技术	3.19478 3.6731 -0.625232 -0.108705 0.357065 2.0995 1.70942 -0.992506 -1.51931 1.05252 -1.657 3.97926 -0.784081 0.422415 0.395739 -0.36408 -1.65707 -0.0757452 1.22395 -0.295882 
建仓	0.189249 -1.36739 -0.150916 -1.93728 -1.32641 5.41791 1.10588 0.896293 0.907023 0.444811 2.13801 -3.98689 -0.0245514 0.402337 -0.84317 1.28642 -0.153912 0.290049 0.528239 -1.56552 
一路	0.259346 0.957426 -1.69504 0.581988 -0.698477 -2.84319 2.92148 -0.617801 0.494343 0.117487 -0.747706 2.93509 -2.66888 -1.48766 -2.99078 1.03819 -3.61962 -1.90796 1.12492 -2.96075 
操作	2.12366 0.0609627 0.0348881 -2.19178 -1.09635 3.1324 -0.417654 -0.533952 -1.11003 3.31415 -0.849454 -0.662126 1.3482 2.49579 1.31269 0.685254 0.943695 0.19631 1.09983 0.442903 
万	0.973529 -0.89805 1.13195 -0.201481 1.67191 1.94628 -1.27716 1.25342 1.38402 -1.3686 1.63136 0.166516 -0.409534 -0.112828 -1.98046 0.201846 0.149719 -1.0182 -2.4698 0.48596 
因为	0.267154 -0.616006 -1.44634 -0.615018 0.232558 -0.0365746 -1.83792 -0.750923 -1.49698 1.25759 -0.413356 -0.761967 1.56324 -1.05218 -0.722917 -0.497443 -0.583391 -0.124292 -1.72333 0.456474 
目标	2.86438 -0.869635 1.15087 -1.30424 -0.921214 2.7422 1.78725 -1.15456 -0.136158 -1.11197 0.705382 -1.83312 -0.96165 -0.613982 -1.54532 1.75463 -3.59815 -0.382962 -0.35651 -2.64346 
明日	-1.15888 -1.70773 2.15176 -0.481696 -1.61578 -0.0169478 1.58871 -0.28525 -3.62139 -1.09344 0.222885 0.368877 -0.0886205 0.0101024 -1.07524 2.05717 -0.620962 0.0677254 2.77076 0.350128 
越	-4.07011 -1.35232 -0.293948 -0.535597 -0.076275 -0.775756 -2.27105 0.381553 -3.34751 3.36118 0.283179 1.47807 -1.03266 -0.888831 -3.57294 -1.84142 1.28952 -1.30558 -4.78941 -0.579696 
增发	0.522147 0.0363101 -4.30985 1.68618 -0.667285 4.14482 -2.00158 1.01798 0.268086 -1.0944 -1.454 -2.06957 1.97901 -0.844502 -3.26256 -2.02555 -2.46209 1.40963 -0.472239 -0.899231 
用	0.91533 0.731349 -0.98732 0.792442 -0.113089 1.62604 -1.25945 0.834392 0.69096 0.919891 -1.25776 0.793753 0.667563 -1.41182 1.12341 0.470413 -0.795351 -0.709836 -1.48537 1.0051 
净资产	1.2717 -0.515205 -1.52646 1.30915 1.42839 2.48298 -0.826671 1.08553 -1.53478 -0.721605 -0.179903 -2.26812 0.430079 0.63195 -5.26681 -3.1874 -2.76534 0.355732 -3.40863 -1.80827 
概念	2.34403 3.24989 0.637776 3.09224 0.844613 -0.282321 2.24029 -1.63397 0.338661 1.94649 1.08807 0.860964 2.96525 -1.47654 0.827885 2.01757 -1.5331 0.184537 0.204288 0.0728515 
出现	1.72986 -1.44197 0.662616 -1.34848 -2.14655 1.07852 0.230134 1.42345 -1.35018 -0.692777 0.268545 -1.27442 2.33316 -1.5881 2.25311 1.5266 -0.197922 0.384292 1.07034 -1.08692 
创新	0.207312 -0.322556 1.37082 2.82833 1.02645 2.67139 2.04622 0.259391 -3.23269 5.40848 1.43629 -2.68086 0.659764 1.67744 1.23767 1.15299 -1.76983 1.134 1.51047 0.509658 
黄金	0.482942 -0.00756301 -2.46361 0.801097 -0.251389 -1.64012 0.0347547 0.232606 -0.207283 -1.45636 3.24143 -0.205482 1.11669 1.06654 -2.34544 0.619977 -4.17278 1.26839 -2.03703 -4.12783 
企业	1.91185 2.19504 -2.29552 3.86894 0.751432 0.854328 -0.622213 -0.193614 0.454157 2.03674 -1.38568 1.96317 1.41847 0.180266 -0.978028 -1.29452 0.0213686 0.223036 0.0332437 -3.05111 
集团	0.723848 1.25541 -0.893982 4.57378 2.54559 2.16181 0.475218 -2.69622 -0.0333865 0.354318 0.869026 1.29049 0.902927 1.37586 -0.86004 1.22473 0.497085 0.267897 2.14521 -0.99331 
洗	-1.91277 -1.01613 -1.701 -2.67426 1.188 0.57867 -0.519477 4.96376 0.737545 1.55015 -1.84831 -3.86185 -0.123541 0.51052 -0.881235 0.593329 1.80172 -1.68517 -1.60436 -0.257407 
节奏	-1.59824 0.197484 0.689293 -1.33574 -0.120882 -1.7008 2.29083 0.73249 1.2226 -0.0626503 -0.972629 0.0231383 2.2378 -0.115597 -0.656745 0.18826 -0.269367 1.14279 0.0610061 1.72135 
启动	2.32631 -1.09036 -0.827989 1.26935 -0.729592 0.465211 2.52754 -0.132862 0.290532 -0.852697 0.852648 -3.04507 0.800717 -0.339653 1.42392 1.24956 -0.819497 0.998573 2.27169 -2.2073 
赶快	-2.61608 -2.22677 0.334253 -1.17857 -1.00966 -1.6363 1.519 -2.10074 1.90894 -0.827116 2.07238 0.37433 0.608372 -2.00811 -2.33251 -0.186794 1.99948 1.48781 0.08528 3.15061 
或	0.489292 -1.04931 0.624802 0.844925 -0.362368 0.92479 0.409381 0.116565 -1.79612 0.336783 0.92031 0.865538 0.978096 -2.11044 -1.6428 0.83623 -1.05429 0.428801 3.24924 -1.54754 
翻红	-2.93892 -2.75852 0.522257 -2.40016 -1.35535 -0.362317 3.0565 -0.319243 -0.0821355 1.22161 -5.29551e-05 -2.94332 1.69714 1.32303 3.66368 2.23782 0.75325 -0.196971 -1.39355 -0.734371 
一年	2.67492 -2.11346 1.03891 0.968197 -0.422822 -0.429425 -1.94269 1.32746 1.17818 0.919052 -1.11721 -0.554619 -1.50368 0.239278 -2.55746 -0.363722 -0.191977 -1.15239 -2.04769 -0.48525 
狗日	-1.12708 0.330433 -1.50356 -1.24559 3.55314 -0.388539 0.362078 0.246955 0.0929744 -1.13318 -0.712223 0.67354 0.944842 1.5981 0.303808 -0.789274 -0.588757 -0.150717 -2.46163 0.595509 
解套	1.73944 -0.306633 -0.101093 0.275825 -1.97983 1.362 2.0329 -0.249148 0.984238 0.0798424 -2.6265 -4.50276 -1.30162 1.19011 -0.62585 -0.985656 0.379483 1.05224 -1.97926 3.16513 
建议	0.490961 -0.827363 -0.119028 -1.27686 -0.519668 1.98707 -0.854308 -3.16647 -1.25444 1.1 1.10756 0.748137 0.342554 -0.906349 -1.71416 -0.596715 2.53167 -0.154423 0.572518 0.0731833 
绝对	0.260583 0.233941 -0.120441 -0.651578 0.84814 -0.0630254 -2.15103 -3.04032 -1.84682 -0.125016 -1.20254 -1.48606 1.01425 -0.74323 -1.62451 2.32083 -0.18915 0.799914 0.16044 -0.126325 
电子	0.855134 3.32994 -2.30009 5.56314 2.38991 1.28805 2.85104 -2.97447 -0.200731 -0.46252 2.01906 2.74951 0.157024 0.402437 0.415447 -0.668962 -0.119827 1.44504 0.513786 0.0576295 
发	-0.000347764 -2.10694 -0.0913827 3.04421 -0.771049 1.44214 -2.23523 2.04692 -0.868414 -0.955006 -1.55695 -0.292861 1.74459 0.248911 2.80278 -0.944935 1.60766 2.10898 -0.902653 1.33396 
最大	1.69197 0.963678 -0.613617 0.893733 -0.24068 1.19032 -0.980464 -2.67512 -0.419566 -1.48217 1.09818 1.2305 1.56419 -2.90472 0.486502 1.37196 -2.22577 1.55891 -1.073 -1.5306 
个股	2.69174 0.848849 2.38249 -1.21468 -0.41545 -0.114043 0.977039 -0.935611 -1.66365 3.16097 -0.182163 2.22237 2.38933 0.620275 -0.262586 0.666049 -0.602418 -0.859846 0.494313 -0.878296 
空间	2.46458 2.4646 1.62702 -1.46448 0.514569 -0.14804 3.87553 1.83082 0.361388 2.85074 -0.439916 0.665214 1.85889 -1.77892 -4.10617 0.630238 -5.06282 -2.68741 -0.792043 -1.65709 
喊话	-5.20995 -3.35667 0.19922 -1.12868 -1.33042 -0.504051 4.11758 2.06605 5.47038 4.5014 1.15193 -0.275382 -1.76441 -4.60097 2.31117 0.912085 4.85629 2.72468 -0.451991 -3.07121 
国家	0.719428 1.09794 -2.32406 1.59437 -0.0432948 1.53505 -0.181809 0.363082 0.773436 0.829874 -0.700502 1.75829 0.857158 -0.25759 -0.97243 0.592001 -0.621212 -0.622086 2.21926 -2.498 
尼玛	-1.53127 -0.47902 -0.271122 -0.765836 1.39581 -2.20606 0.778097 0.577887 -0.13538 -2.05488 -1.03191 0.196314 0.152958 1.24789 0.444445 0.154452 -0.514309 0.0443014 -3.11856 0.450959 
像	1.50543 -1.01311 -2.3061 -0.471068 0.961235 -2.27666 -1.08166 -0.0695187 -1.49207 -0.593683 -2.28206 0.0382927 0.869759 0.182082 2.64201 -0.336825 0.430454 -1.214 -2.25097 -1.35224 
到底	-0.409576 -0.0496063 -1.24354 0.199425 0.997495 0.266005 0.198654 0.544485 -0.342874 -0.0134567 -1.76667 0.0490824 2.02984 -0.246558 0.063727 -1.30911 -1.58488 0.499032 -1.33858 1.99337 
量	-0.140754 1.00703 3.74155 -1.95051 -1.11657 2.07123 1.08903 2.64756 -3.12988 1.46059 -3.89875 -0.736499 0.388729 2.09639 -1.30828 0.920446 -2.01401 -0.735247 -2.18602 0.053243 
暴涨	0.24951 -1.83293 -0.366772 1.5793 -0.510629 0.0672234 1.43721 0.279297 -1.5218 0.371926 0.832028 -3.36055 2.27892 1.10617 2.22949 1.32836 -1.80593 1.11161 0.00303041 -2.18373 
有色	-0.342405 -1.16191 -2.10975 0.767876 0.453405 -1.96196 0.0733222 -0.0406324 -1.13323 1.28224 4.085 -0.413815 1.94024 1.32115 -1.05453 1.33031 -2.73052 0.360104 -0.175135 -3.27839 
之	1.35458 -0.578704 0.179119 -0.87611 0.352188 0.93686 0.852065 -1.79588 -0.561818 -0.20864 -0.895015 0.834649 -1.48269 -1.1509 0.230913 -0.996335 0.302621 2.07161 1.44872 -1.62842 
这种	0.689669 1.85488 -2.85635 -0.616269 -0.880141 -1.88484 -2.62268 -1.06347 -1.90396 1.52202 -1.30752 0.167571 -0.0965659 -0.890943 0.126331 1.15088 -1.9248 3.58832 0.0398554 1.03933 
全仓	-1.98848 -3.69572 2.11458 -1.81965 -0.183977 2.23977 2.20319 -1.37361 2.3943 -0.92799 1.47181 -1.26278 -0.629426 0.898593 -1.75756 -0.122695 1.53175 0.490917 -0.180997 0.287604 
狗庄	-2.21714 -0.681863 -1.81334 -2.21714 1.81569 -0.925121 -0.390165 1.73194 0.437961 -0.105833 -1.85685 -0.476432 -0.135787 2.16683 -0.809399 0.319064 -0.1499 -0.295451 -1.20345 0.592543 
项目	3.85027 0.924818 0.143538 4.52713 1.66225 3.16361 2.01611 2.43435 2.39329 0.0692068 -0.898203 2.99016 1.487 -0.928186 0.685043 -0.63312 -1.44094 -2.0207 0.491 -2.79309 
控股	1.23421 1.77824 -1.55348 4.66855 3.00659 4.29704 -2.10434 -1.11916 -1.35513 -1.48581 -0.847255 -1.88893 1.70227 0.789211 -0.48779 2.55192 2.31977 -0.764996 0.841443 -3.0939 
不错	2.73985 2.66181 -0.747077 -0.719255 -0.556977 -0.768508 0.368611 -0.176121 -3.73597 -0.195136 -0.297105 -1.45453 0.486355 -0.329892 0.322472 1.27702 0.270148 -2.59878 -2.23068 1.22468 
必须	-0.165967 -0.99344 -0.00995092 -0.567228 -0.905754 -0.344301 -0.251937 -0.478333 -1.32689 -0.193619 0.177065 0.116798 0.987089 -1.26056 -2.16124 0.612554 -0.635215 -0.714354 0.824967 -0.209367 
地产	0.838029 -0.0596677 -0.230047 5.37793 0.31394 -1.20349 0.582641 0.522083 -0.949875 1.38685 2.80538 2.41142 0.401814 1.43855 -1.17733 0.900094 -1.94415 -0.369272 0.408437 -1.69976 
不赞	-1.46047 0.826062 0.643703 1.51946 1.18373 -2.74436 1.62021 1.30384 -1.05054 2.5182 -2.63989 0.46872 -3.58268 0.17883 0.834078 0.939636 0.855463 2.17448 -0.842065 0.26255 
不过	0.392887 -0.89943 -0.135192 -0.96273 0.159565 -2.57375 0.0347721 -0.276095 -2.24191 0.645168 1.10802 0.189044 -0.587448 -0.457753 0.524692 -0.309696 -0.290569 -0.639046 -3.08781 0.727183 
成功	1.11534 0.448011 -0.145045 -1.8763 -0.553017 0.630974 0.568826 0.466129 0.640981 -2.5458 -0.159588 -0.39056 0.560358 -2.30386 -1.17684 1.60838 0.541296 -0.536372 1.64831 -1.10482 
数据	3.78818 2.8403 2.16255 2.19955 1.49258 2.55503 -1.27967 1.74726 -2.75235 0.244779 1.24449 3.4877 2.07545 1.92051 0.089915 1.47619 0.916251 -0.66809 0.659988 -0.529366 
耐心	-0.480624 0.394204 -0.279599 -1.88098 -2.85507 1.61228 0.361685 -0.492878 0.194123 3.10719 -2.67621 -1.64256 -1.57033 -0.416171 -4.28831 0.185935 -0.240659 0.756128 0.966793 -0.240367 
后悔	-1.42558 -0.339021 -1.75281 -1.91374 -0.201427 -1.00164 0.868783 -2.45275 -0.67125 0.0604438 -0.404548 -4.61618 1.29355 0.936036 -2.09153 -0.900788 3.03868 0.513451 -2.46854 0.157487 
贱	-0.995665 0.310818 -2.426 0.482817 1.05729 -1.85353 0.070591 -2.23537 -0.851992 -0.87555 -1.65809 -0.148673 -1.68154 2.80083 2.18577 -0.204847 -0.68087 2.90546 -3.68907 0.279977 
结束	2.61946 -2.04117 -0.0561135 -2.17237 -0.0294034 -0.827208 1.16998 2.94196 0.349176 0.287651 -0.52624 -2.16392 0.156953 -2.94513 -0.3791 -0.0450339 0.751515 0.69062 3.1401 -0.819458 
接盘	-2.98606 0.130243 -1.36802 -1.75498 -1.41296 3.25837 -2.18549 1.5062 2.15656 1.35833 0.724636 -1.40954 0.959226 -0.261976 -0.287047 0.887037 2.78349 2.76494 -0.76975 1.85543 
换	1.35845 -0.545504 0.462301 1.54982 2.21918 0.256497 0.630653 -2.05553 0.618878 0.281106 1.57176 -2.60538 -1.01442 0.169948 1.38468 0.630508 2.09571 0.386755 -1.89229 0.464782 
高位	-0.76619 -0.927641 -0.0650958 -4.53045 -0.640027 1.65331 -1.15648 1.2587 -0.616366 -1.37733 1.17572 -0.218299 -0.66539 0.184131 -1.71446 0.331544 -0.457991 2.21737 -0.275555 -0.663169 
亏损	1.71242 0.899335 -0.302372 2.40715 0.461462 1.26236 -2.22789 1.31258 -1.81857 0.76529 0.428241 -2.25179 0.907044 -0.20231 -1.68276 -0.519044 -0.35095 1.65647 -1.86616 -0.729791 
而	-0.598274 -1.25662 -0.738484 -0.92785 0.28757 1.42714 -1.05176 0.439937 -0.937259 2.28153 -0.913149 -0.0466488 -0.685054 -0.0761938 -1.59744 -1.70032 -0.725655 1.94373 -0.0289577 -2.08781 
无	2.38649 0.889379 -0.551551 -1.24949 0.837124 0.0239439 1.01537 0.0939682 -0.75117 -0.33729 1.95747 0.767965 0.451491 -4.11638 1.82361 -0.742196 -0.257731 1.07591 -0.583587 0.452077 
敢	-2.00723 -1.57783 -4.00512 -1.441 -0.725041 0.732775 0.41935 -0.963491 -1.58055 -1.81611 2.50421 0.963915 0.763235 0.35599 -0.325099 -1.08949 -0.660946 -3.29484 -2.98454 2.96097 
本	1.46126 -1.12393 0.101831 1.22789 0.141106 1.58841 0.723055 -0.342785 1.46149 -0.286448 -1.63258 -2.05707 -0.605901 1.46959 -1.77281 -2.29197 0.7452 0.524054 -1.93382 2.40065 
先	0.740851 -1.69901 -0.266447 -1.38018 -1.35278 -0.847153 -0.908376 1.12249 -0.14224 0.18163 0.298639 -0.0168853 -2.04761 -0.539131 -2.16071 0.121093 1.96258 -0.803104 0.720662 1.616 
震荡	1.60118 -0.0477724 0.639943 -4.07624 -1.65398 1.46555 0.852634 3.72254 -1.98669 1.44398 -0.772009 -1.02867 0.461333 0.157832 -0.328515 1.24898 -3.07336 1.20675 1.4466 -1.12038 
新股	1.19574 -2.50551 -0.21892 0.895497 -1.75217 -0.226829 0.0715701 -0.774472 2.33498 0.551871 0.962961 1.56051 1.83535 1.08025 -3.84523 -3.5521 -1.1033 1.04137 -1.9218 -1.63274 
不了	2.01782 -0.171263 -0.899369 -0.0114417 -0.212097 -2.84697 -0.204672 1.25631 -0.520575 -0.265068 0.602001 0.646401 -1.12707 -1.19969 -1.41624 -0.39544 -1.04831 -1.46302 -1.88108 2.58293 
线	4.1658 0.663744 -0.021707 -4.17943 -0.502996 0.872722 2.673 2.15287 -1.46527 -0.155838 0.251324 0.341788 -2.16737 2.99378 -0.010102 0.261627 -2.13034 -0.571466 1.32923 0.832187 
成	0.72564 -0.249647 -1.48887 0.124235 1.1597 -0.835423 -1.10793 0.487701 0.212749 -0.654647 0.548138 -0.996236 0.909858 -2.63558 0.850064 2.01134 -0.192042 -0.0104905 0.258453 -1.95195 
哦	-1.76716 0.421325 -0.362173 -0.0769662 -1.02777 -0.703657 0.600899 -0.314864 0.00934196 0.929604 -0.615943 -0.571409 0.416802 -0.390799 -0.766002 1.44154 0.339599 -1.19941 -1.10895 1.69029 
倒	-2.62675 -1.43414 -1.79285 -2.10971 1.12907 0.381735 -2.43553 0.690468 -1.30604 0.886092 -2.79739 -0.712631 -0.0732972 2.17648 -0.0571341 0.834384 0.00117977 1.59685 0.313299 -0.0720895 
只要	-0.423406 -1.57295 -0.377003 -0.673375 -1.36938 0.201251 -0.443689 -1.54824 -2.04816 0.727235 -1.2537 0.0235421 0.296498 -0.22603 -0.399707 -0.250413 -1.31092 -0.590101 -1.23202 1.33998 
早上	-1.18277 -1.47924 1.83076 -2.93822 -0.481239 -0.933076 -0.137045 1.61164 -0.521563 -2.348 0.51331 -0.893141 0.743506 2.61602 -1.95036 0.886996 1.25374 0.270168 -1.61258 2.09981 
向	-0.688613 -1.93737 -2.30564 0.861766 1.76244 1.00529 0.495323 -1.01851 -0.718861 1.3638 -0.38876 0.250125 -0.296727 -1.56242 0.551539 -0.672203 0.898216 -1.5688 1.73794 -1.17908 
上车	-1.25917 -0.474947 0.36084 -0.759325 -4.64521 3.47326 1.75266 0.227072 2.71464 0.460915 -1.73211 -4.97015 1.45718 0.0586721 -0.186021 1.31135 2.4023 1.32175 -0.780772 1.62496 
谢谢	-1.01268 0.49224 -0.992439 -1.39789 0.16777 1.68017 0.286471 0.815115 0.0634129 -1.34806 0.451836 -0.014114 -1.99495 -0.669459 0.0870339 1.78956 1.74952 -1.38101 0.321182 3.81451 
僵尸	-0.980921 -0.731407 -4.26688 0.162706 0.535268 -2.47012 0.674512 -0.606608 2.09176 -0.215888 -1.30495 -0.0216416 -1.06539 0.294999 1.56352 -1.364 1.23013 3.82297 -0.870959 -1.73455 
券商	-0.271417 -0.350087 0.901105 1.0488 0.199322 -0.230055 -0.52525 -0.0994737 -0.486159 2.08332 3.28346 0.928177 1.49967 1.483 -1.7246 1.71851 0.81576 0.232401 1.09261 -3.16998 
有点	0.257761 1.64536 0.899436 -1.09067 -0.108103 -0.531582 -0.747163 0.905311 -2.17699 1.94876 -1.55217 -0.542275 0.315755 -1.14064 0.480975 1.50443 0.471609 -0.400322 -1.61722 3.20385 
为何	-0.649341 -0.408853 -0.413178 0.51107 0.675537 0.842399 -1.65993 -0.466502 -2.75999 0.211114 -1.22759 1.08383 1.45116 -0.712447 -0.631148 -1.00832 -0.575168 0.351847 -1.1748 0.217764 
炒	2.22916 -0.624354 -1.23958 1.25304 0.967687 -0.418441 -0.566391 -0.988433 0.969741 4.19186 0.0403338 -3.17577 0.397465 -0.92663 1.63033 0.00393821 0.0322038 1.12128 -2.05119 -0.904767 
跌破	1.53916 -2.63227 -1.31778 -1.46054 -0.348612 2.43376 1.37278 0.245717 -1.72192 -1.01755 -0.405241 -4.41837 -0.190945 -0.385424 0.397358 -1.27256 -2.19764 0.39372 -1.18743 -0.100934 
票	0.801527 1.42893 0.0741475 -0.719987 0.77949 -1.10029 0.987919 -1.24654 1.1245 1.61717 -0.476297 -0.339227 2.03645 0.832692 -0.660421 -0.0216979 -0.308454 -1.56211 -4.03182 -0.402079 
说明	1.26512 -0.00528352 -0.0742645 -1.1195 1.84562 1.00569 -0.974268 1.48599 -1.83124 0.990402 -0.545718 0.829697 2.02806 -1.96066 0.522092 -1.57478 -0.196629 0.528029 -0.629949 1.01711 
靠	-0.371222 -1.1095 -0.15404 0.887149 0.349984 -0.110748 -0.741677 -0.66118 -0.532721 0.762792 -0.0545462 0.510211 0.209684 -0.411927 0.99514 -0.12353 0.472633 -0.849343 -2.20528 1.23373 
不好	2.19902 1.19702 -2.36621 -0.214059 -2.64303 -2.19956 -1.62887 1.17324 -3.56689 0.837541 -0.620445 0.114021 -0.267002 -0.680558 0.852311 -0.350201 0.818142 -0.256339 -1.42439 1.15396 
不行	0.786231 0.642624 -2.8043 0.378186 0.137508 -1.63909 0.166706 -0.127415 -1.03337 -0.567633 0.739634 -1.46801 0.426982 -0.116203 1.70143 -0.672297 0.789413 0.578155 -2.15593 1.36633 
诱多	-2.37728 0.562729 -0.28404 -4.3746 -1.39385 -0.133739 -0.000865842 3.31421 -0.822459 0.537049 0.212026 -1.06845 1.10266 1.36928 1.33225 2.6169 0.605156 2.49658 0.629587 1.00357 
短期	1.93473 -0.176719 1.8231 -2.01422 -1.19888 0.672873 0.558809 -0.707086 -3.27105 1.06029 -0.532628 -1.05928 -0.777436 -1.74991 -1.9594 1.12299 -1.15768 0.815512 1.36443 -2.13869 
两个	1.65018 -1.44742 1.3751 1.95398 -0.701043 -1.19459 -2.09884 0.725612 0.370072 -0.10654 0.753195 0.223227 -0.29824 1.45233 -0.941614 2.96266 -3.08582 1.41264 0.100781 3.63789 
严重	1.66607 1.48099 -0.539864 -2.22607 2.42507 -0.157675 -0.415302 -1.48952 -2.69407 1.09486 0.500119 -0.474488 2.33071 -2.75974 -2.18022 -1.1412 0.6623 0.187044 -1.46928 -4.16651 
报告	4.32776 -0.191207 -0.451571 1.21225 1.98187 2.47086 0.338266 0.0164081 -1.34943 0.622139 -1.32947 4.05153 -1.39575 -0.887919 -1.71427 -4.13561 0.606176 1.16127 1.65697 -0.800454 
很多	1.71359 0.818498 0.397176 -0.593123 -0.0900432 -0.156945 -2.51689 -0.477542 -0.721934 1.02197 0.0218993 -0.337219 0.828036 -2.26647 -0.461199 0.570472 0.981014 0.801506 -2.06782 0.59811 
板	0.803161 -0.50977 1.17037 2.07181 -2.50464 -0.350351 2.37361 0.82467 0.507991 -2.19254 -2.22625 -1.52516 1.41499 0.229992 2.30818 1.64153 0.486174 -2.50548 -2.08828 -0.408599 
当	0.163214 -1.14113 -3.46461 0.172731 0.478568 0.0274021 -2.02844 -1.39974 0.565499 0.762751 0.318615 -0.615687 -0.611636 -1.03633 0.386588 0.113463 0.839332 -0.343466 -0.797729 0.504604 
改革	1.89583 0.676735 -2.06471 4.80108 -2.92562 0.852895 0.991491 -0.676383 0.0280187 1.33924 -1.64976 -0.197575 0.927133 -1.60829 -1.1823 -0.12986 -0.732137 0.673437 2.05019 -3.70176 
国际	1.57262 -1.27247 -1.67383 2.35832 0.92993 1.28035 0.312755 -1.92844 -2.68076 -1.30008 1.87208 2.90592 0.939031 1.00862 -0.304385 -0.475459 -2.38737 -0.536914 1.16123 -2.31293 
近期	1.96879 -0.144241 0.808076 -1.24558 -0.0519802 1.41625 -0.638967 0.206269 -2.88372 0.175411 -0.275453 0.421967 1.43186 -1.02929 -1.5166 0.84136 -1.3087 0.87753 2.60654 -1.64567 
各位	-0.342191 1.34369 -0.167818 -0.966266 -1.93319 2.1258 0.532354 -0.795966 1.29241 -1.14849 -1.23014 0.934573 0.049261 0.6982 -0.495765 1.07086 4.02934 0.0126476 1.92172 2.74865 
独立	3.95291 2.84025 -0.567547 -0.334033 3.06907 0.409417 2.29657 -1.82357 -3.25923 0.93196 -3.61473 1.95915 0.7646 -2.85962 1.09429 -3.90417 4.65611 3.38169 2.40013 -1.97559 
每股	3.76565 -0.911925 0.641456 3.5658 1.93143 2.18959 -0.69945 -0.20665 -1.99161 -1.14728 -0.349766 -3.05354 -0.263465 -0.718285 -3.79388 -0.953708 -2.01974 -1.28778 -3.14269 0.0323525 
抢	-3.35719 -2.62589 -1.5985 1.57268 -0.458058 1.91132 -0.76983 1.33084 1.44144 1.46697 2.59408 -2.95879 0.423592 -0.564954 -0.589035 1.58215 0.253777 -0.304418 -1.18916 0.32368 
涨幅	2.7127 0.177859 2.6752 0.361555 -0.49045 0.917808 0.797108 0.296579 -2.25795 1.00494 -0.0450531 -1.91394 1.40771 2.41383 0.745459 1.68249 -2.75709 -0.427024 -3.35876 -3.42864 
牛股	2.81184 2.08977 0.0731914 0.595632 -0.920929 0.0559207 2.314 -2.64081 0.98402 1.9357 -0.149222 -1.30808 1.59826 0.860988 -1.0212 1.53098 -1.7168 -1.05539 -0.866704 -0.955324 
成交	-0.159391 -0.644689 3.56064 -0.960114 0.377626 4.77087 -0.558933 1.11852 -0.566419 -1.87573 -0.618808 -0.635202 1.52431 0.400479 0.0427405 1.57759 -0.915457 -0.275546 -3.03904 0.764664 
这是	0.485856 0.174885 -1.20039 -0.928906 0.337276 -0.0379303 -0.566268 0.237226 0.848367 0.365395 -0.297613 0.928237 2.95141 -1.16141 1.33825 0.542481 -1.84165 1.11633 -0.53635 0.396344 
告诉	0.483855 -3.60153 -1.13063 -0.289119 0.989895 2.70497 -1.68714 -3.06324 0.259566 2.07533 -1.06679 -1.19374 2.04192 -1.03559 3.71621 -0.107158 1.99523 -1.23158 -1.62612 4.73948 
直接	-2.21729 -1.96212 0.225885 0.983209 -1.08691 -0.416567 -0.385387 0.0476882 -1.19135 -1.46068 -0.719549 0.0611333 0.768877 -1.10324 -1.70993 0.959199 -0.815869 -0.233603 0.488909 1.68897 
利润	2.71602 1.03644 0.968197 3.29527 -0.536234 2.62539 -1.10393 1.47952 -0.392337 1.35192 -0.10218 -1.02638 -0.383609 0.914727 -3.14959 -0.42565 -1.2141 -0.893777 -3.11037 -0.988816 
炒股	1.8853 1.634 -1.26118 1.19052 -2.20973 -0.0776484 -0.598468 -3.12098 0.766654 3.15587 -1.18179 0.278029 -0.652347 0.904632 0.0725996 -0.939584 1.63231 0.747899 -2.85324 1.45955 
及	2.53755 -0.855325 1.36859 2.9633 0.752951 3.54003 -0.646708 -1.13274 -1.30754 0.445098 0.0701026 2.91369 -0.183378 -3.83605 0.353391 -0.975349 1.24318 0.972942 1.63514 -1.33945 
上午	-0.604936 -1.0187 0.898725 -2.67358 -0.493024 -0.317265 0.583878 0.834065 -1.52434 -2.31599 1.43165 -0.279742 -0.0683194 2.16544 -0.360455 1.80557 0.545973 -0.995284 -0.670736 0.895243 
号	2.07783 -2.51369 0.595933 0.987412 0.292743 0.92466 -0.895722 1.41591 -0.0228126 -2.48575 0.962143 0.813097 -0.142889 1.79307 -1.18081 0.058735 -1.60267 1.76507 1.92936 1.27504 
骂	-0.995273 -1.81856 -2.69296 0.446284 0.924832 -0.743073 -1.7127 0.00408933 0.779236 2.04826 -2.6016 -1.14814 0.310743 1.76194 2.42627 -1.25847 2.52345 0.159148 -3.1427 2.79418 
最近	2.03503 0.104442 0.116029 -0.494761 -0.384112 -0.523404 -1.80743 -0.161612 -2.5699 0.0716236 -0.723778 0.202022 1.08025 0.0654677 0.311273 0.67287 -0.448019 1.11176 0.13741 0.182811 
送	2.27955 0.732855 -0.154097 3.74346 0.336115 1.16315 -0.99884 -0.393551 -0.635904 1.77817 -0.228812 -3.77504 -0.15346 -0.733138 -1.42527 1.24076 -0.187022 -0.370269 -1.32616 2.5233 
相信	0.794158 -0.357473 -2.65001 -0.830334 0.372753 1.57993 -0.941855 -2.82298 -0.358156 1.91615 -1.33735 -2.51583 1.4638 -0.814967 0.829817 0.456039 0.510018 -0.863241 -0.822717 1.73144 
长线	2.13105 1.50135 -1.46527 -2.96361 -1.39729 1.94788 -0.614344 -3.81637 0.661069 3.62706 -0.149836 -0.125924 -1.10434 -0.581319 -3.41984 1.77213 -0.949929 -0.925882 0.0246381 -1.68625 
绿	-1.60318 -0.916582 -1.61557 1.11336 0.0874863 -1.44582 1.68267 1.43656 -1.5703 0.22085 -0.304671 -1.86787 1.18537 3.30519 3.82895 0.235942 -1.07073 0.551915 -3.28892 1.064 
有限公司	4.5143 1.43719 -1.06023 6.76222 5.8073 6.26938 1.66481 -2.65524 2.32144 -1.10816 -1.01526 2.74039 0.268715 -0.886643 1.28088 -1.56105 4.04649 -0.248726 1.57214 -3.57912 
找	0.826387 -0.0847259 -1.97506 -1.06809 0.74082 1.32054 0.175587 -2.70891 0.643693 -2.77731 -2.30389 -0.659792 -1.33882 0.220757 0.75591 -0.562309 0.231383 0.452274 -1.49936 0.510914 
大幅	0.412427 -1.168 2.26441 0.0146308 1.83636 0.555192 0.505076 2.36991 -4.38594 -0.275136 2.10381 0.205786 1.22643 -2.73955 -1.69441 1.29114 -1.99366 -0.577882 1.59502 -2.40482 
两天	1.79399 -2.17412 1.83924 -1.59741 0.0845852 -1.79562 -0.41635 2.2154 0.0516669 0.00176751 -0.495263 -0.390386 1.68416 0.884372 -0.193039 0.936722 -1.81106 -0.65757 -1.38288 0.309326 
证监会	1.63495 -1.74129 -2.29218 1.4438 -0.69497 1.89155 -1.97749 2.3203 1.59523 -0.476375 -2.83275 0.976179 2.94839 1.05663 -2.08444 -1.21314 1.54196 0.386078 3.6761 -1.1971 
高手	0.557968 2.0954 0.362504 -2.09037 -2.52328 3.89094 -0.428944 -1.34074 1.49689 1.05804 -2.39865 2.1037 0.357009 1.94495 -0.754263 1.17037 0.217253 0.349026 -0.182889 3.69951 
上海	1.50382 -0.516474 1.3755 2.47973 1.3451 1.35196 1.04213 -2.17263 0.289015 -1.33208 3.08389 2.38105 0.06095 3.35532 1.72727 0.859521 0.587319 -0.288023 -1.36809 -1.5966 
天	2.12438 -0.964026 0.569629 -0.477745 0.810591 -0.634299 0.367638 1.4318 -0.100743 -0.443288 -0.266236 -0.370661 -0.0202361 0.0230805 0.147071 0.51226 -2.0075 -0.556694 -0.654653 1.46937 
三个	1.50484 -1.93883 2.45535 2.26548 -1.28189 -0.919418 -1.68942 0.789 0.298121 0.843324 0.628679 0.241056 -0.25261 2.50644 -1.57378 3.08927 -3.67178 1.4082 0.0471804 3.03929 
年报	3.29802 0.4327 0.701029 3.37773 -0.743585 0.612044 -2.13728 2.54029 -3.41807 -1.49799 -1.06026 -0.922294 0.9118 2.09505 -4.31367 -0.921968 0.551013 0.63552 0.412458 -0.640648 
进来	0.0848089 -0.335755 -0.828044 -1.32838 -1.42417 0.729961 -1.56634 0.893189 2.19367 -0.940018 0.0664199 -1.05494 0.841642 0.709335 -0.536197 1.06471 2.27606 -0.505241 -1.60295 1.2135 
一起	-1.68984 -1.52525 -2.48521 -0.130618 -1.05939 -0.057138 -1.6184 -0.373756 -0.781084 -0.799199 1.51222 2.63453 -1.63484 0.46202 -1.7173 -0.132211 2.58659 -1.30262 1.01302 1.34136 
战略	2.3166 0.425444 -0.534886 1.01737 1.114 4.17606 1.28845 -1.71591 0.691508 1.97176 2.47782 2.36229 0.597784 -1.65348 -1.22445 1.1293 0.347876 -1.90617 3.23546 -2.43271 
以后	1.40962 -1.30382 -1.49588 -0.0882063 -1.59695 -1.1735 -0.169882 -0.415951 -0.406779 1.09069 -0.137096 -2.17953 -0.201676 0.485917 -1.37804 -0.500182 -0.144919 -0.54116 -0.950878 0.885433 
三	1.93819 -1.2559 0.171366 2.41993 0.374491 0.00216898 -2.85672 1.00907 -1.98779 -0.00392362 -0.708692 0.164622 -2.32692 1.14566 -1.43189 2.02027 -1.15497 0.46025 1.78483 1.30971 
附近	0.38974 -2.87469 0.260061 -3.49776 -2.66282 2.93866 0.749424 0.295231 -1.68184 -0.250157 -0.463535 -2.17068 -1.28068 0.223929 -3.45105 -0.186668 -3.24498 -0.917973 -0.842007 0.77714 
预测	2.85484 -3.378 0.73288 -0.00293768 -1.36153 2.12589 -0.0251051 -2.50717 -4.06685 -1.08559 0.00451558 -1.31464 0.842612 2.3146 2.29423 1.08034 -0.516008 -0.312076 1.03092 1.20846 
向上	2.15518 0.457761 -1.42514 -2.06712 -0.838323 0.674107 3.41591 0.764569 -3.48021 1.13326 -1.54077 -2.28964 -0.394134 -1.47698 1.69852 0.746376 -2.62843 -0.838592 1.62696 -1.26487 
收购	1.26514 -0.623885 -1.956 5.8411 1.24106 2.70204 -1.11461 0.376204 1.48975 -0.278331 -0.0323801 -1.85811 2.80968 -0.748355 0.0441613 1.14383 0.348941 -0.590904 0.827235 -0.701363 
坚持	1.18171 1.41321 -2.91334 -0.955839 -0.568664 1.60527 0.699086 -2.11995 -0.239587 1.19463 -1.1776 -2.96341 -2.44709 -0.378985 -1.26422 0.463394 0.037458 -0.465402 -0.285015 1.6673 
挂	-2.67786 -1.66004 0.623608 -0.542583 -0.285181 3.0375 -0.84509 1.94947 0.633583 -1.49638 0.637328 -1.07482 0.716432 0.689617 0.224661 0.893178 -0.91554 0.435561 -3.28544 4.12138 
一带	0.90497 0.189093 -2.55909 4.77096 1.02161 3.23896 4.44484 -0.0528227 -0.554816 3.91351 -1.35315 -1.70051 -0.896145 0.533491 3.79265 -0.423928 -2.65138 1.12009 1.45291 -3.21712 
公布	2.88433 -1.22921 0.751653 4.0763 1.20129 2.5431 -0.797715 2.06203 -1.91286 -1.52598 -1.25961 -2.17137 2.87284 -0.312524 1.18029 -0.484149 1.01056 2.42294 2.30575 -0.308308 
做空	-2.73881 -1.27928 -2.71799 -1.6603 -0.0592109 3.3107 -2.37377 0.165488 0.0642848 -0.126251 -0.394863 -1.33881 2.87351 1.4665 1.24927 1.97482 0.0625683 0.647142 -0.573261 -4.24407 
慢慢	-1.244 -1.68169 -2.09993 -2.41635 -0.147954 -1.44105 -0.640734 1.9713 -0.440851 1.77225 0.0558121 0.253499 -3.10087 -0.94848 -2.38551 -0.0495111 -0.504115 -0.982242 0.20335 0.958866 
忽悠	-1.42691 -0.426541 -2.4218 -0.798371 -0.554816 1.02949 -2.53322 1.11978 2.53856 0.986383 -0.213989 -0.248305 2.80576 -0.832106 -0.00471853 -0.0208973 2.33434 0.399932 -1.50535 1.09822 
其实	1.97876 1.17916 -1.1448 -0.491979 0.0787062 0.62791 -2.01778 -1.3262 -1.17951 1.37529 -0.991998 0.41016 1.33653 -0.065008 0.237961 0.34525 -0.464687 -0.531669 -2.03628 -0.00847385 
为了	-0.2716 0.293003 -2.33325 -1.098 -1.92292 0.577785 -2.2801 1.06927 0.615837 0.453914 0.263532 0.549315 2.12516 -1.31118 -1.5824 0.47946 -2.25338 1.09906 -0.56715 1.44091 
意思	-0.565428 0.417545 1.00985 -1.7449 0.159557 1.49775 2.60585 2.60989 1.81387 -0.893827 -2.85136 0.904453 3.98666 -0.712933 1.33474 -1.11166 -1.90419 0.340997 -2.20564 3.92507 
拜神	-2.46763 0.99905 2.20351 1.03834 -0.314454 1.22963 3.76799 0.390465 -0.401967 -0.280049 -1.06751 0.188589 -1.58024 -2.32062 -1.81322 0.940577 1.64197 0.0697784 0.849911 2.02576 
托	-1.49221 0.660771 -2.71476 -1.13278 -1.45454 0.512809 -1.885 1.93798 1.33973 1.06481 -0.260694 1.62646 1.48565 3.07211 2.0915 0.123782 0.526299 1.87458 -2.28053 1.30676 
唱空	-1.1202 -0.409975 -2.43289 -1.24421 -1.74898 2.5309 -1.81049 1.17812 1.00253 1.50714 -1.51721 0.0444492 2.08871 2.78296 1.15562 -1.3915 2.04429 0.0829932 -2.80896 -1.48853 
猪	-0.614165 0.599266 -2.49367 -1.7982 0.835769 -2.10764 -0.846007 -1.11478 0.382752 -0.409178 -1.15629 0.13206 -0.879439 3.97204 -0.887686 0.0101771 0.0803392 0.198476 -3.54965 0.184898 
只能	0.580556 -0.429696 -2.39585 -2.00972 -1.09172 -1.52889 -2.11545 0.0219524 -0.879986 0.23475 -1.31972 0.491045 -0.794446 -0.155643 -1.9448 -0.155734 -0.496223 -0.747861 -1.12455 0.666952 
献花	-0.702653 1.69327 1.66426 1.05828 -0.371874 1.84164 2.89392 0.0247731 -0.465131 0.347938 -0.271853 0.384277 -3.77942 0.180199 -0.442536 2.92803 1.86743 -1.8176 0.29124 1.09617 
最好	0.314797 -0.731917 -0.686699 -0.992677 -1.17456 0.435267 0.0660119 -2.37915 -0.0281716 0.197075 -0.200573 -0.659309 0.150362 -1.54352 -0.40436 -0.00344552 -1.32033 0.955554 -1.08039 0.171421 
如此	-0.296068 1.11482 -0.553597 -0.48039 1.97023 0.161974 -1.16796 0.241077 -3.06957 3.46113 -0.218977 0.4753 1.39601 -0.538572 0.482763 0.812669 -2.28055 -0.0806463 -1.44654 0.00512225 
懂	0.259484 0.656817 -2.43963 -0.00750246 -1.10824 1.85225 0.472255 -1.87761 -1.61565 1.26327 -1.40882 -0.0734408 0.278402 -0.244871 2.5047 -0.987691 1.13872 -1.07215 -1.65114 3.34679 
听	-2.05591 -2.59006 -3.08468 -1.31497 -0.302561 1.01562 -0.22442 -3.26871 1.97578 3.9257 -2.0176 -0.812096 2.09093 0.113309 0.547711 -3.0906 4.58032 1.29061 -0.297061 2.54502 
原因	0.114089 0.468263 -0.149071 -0.106846 0.142256 0.165556 0.939662 -0.235499 -0.985349 1.69143 -0.209463 2.36549 4.77935 1.29413 -1.41721 -1.97906 -2.28604 0.856581 -0.153537 0.202885 
就要	0.829083 -2.21527 -0.0313722 -0.255032 -1.47847 -2.59342 0.741506 1.06234 -1.01392 -0.976688 0.483717 -0.919017 0.242101 -1.45739 -1.72151 -0.429963 0.428875 -0.480972 0.725954 0.16944 
计划	4.2216 -0.558688 1.73479 0.927209 1.09774 3.20682 -0.353061 -0.349838 2.99009 -2.82254 -0.211285 1.14494 1.74696 -3.02388 -2.56701 -0.18554 1.67101 0.301601 1.91915 -0.99344 
人家	-0.525405 -0.390084 -1.61926 2.13179 0.566911 -2.63371 -0.451164 -1.05454 -1.11634 0.169623 -0.611749 1.28348 -0.36642 1.57115 -1.37311 0.304622 -0.952721 -2.11403 -2.08154 1.06254 
红	-0.388329 -1.13648 -0.58032 0.491798 -1.32691 -0.98324 1.93994 0.31181 -2.74997 -1.0332 -1.13335 -2.29312 -0.28673 2.88212 3.00191 -0.0254457 0.551747 -0.204422 -2.26382 0.825971 
货	-1.11064 0.986258 -0.681509 -0.986589 1.3356 -0.129406 -1.34591 2.88218 0.778139 -0.94062 -0.416904 -1.73448 0.748003 0.0528441 -1.82627 0.267839 -0.793536 1.52014 -3.48105 0.0889789 
军工	0.135884 1.91556 -1.19768 3.85274 1.68636 -1.51503 2.20782 -1.99095 -0.938473 2.29917 1.16738 -0.283103 1.83605 -1.15736 0.250256 0.627858 -1.68646 1.15597 -0.173168 -1.31742 
别人	-0.603959 0.353826 -3.33946 -0.454937 -2.91683 -2.16468 -1.13384 -0.580221 1.07253 1.94912 -1.39329 1.04617 0.372602 1.09571 -2.60566 -0.809997 0.517058 -1.30311 -2.19551 0.938253 
